{"worldVariables":{"inheritanceSinglePickRate":0.2,"mutationSmallScaleRate":0.5,"uckeleoidMemoryUnitCount":0,"initialWallGenerationProbability":0.1,"mutationRandomRate":0.25,"initialFoodGenerationProbability":0.2,"mutationFlipRate":0.25,"inheritanceGaussianMixRate":0.8,"foodGenerationProbability":0.01,"initialUckeleoidGenerationProbability":0.2,"mutationRateExponent":-7},"worldObjects":[{"type":"WALL"},{"type":"WALL"},{"type":"WALL"},{"type":"WALL"},{"type":"WALL"},{"type":"WALL"},{"type":"WALL"},{"type":"WALL"},{"type":"WALL"},{"type":"WALL"},{"type":"WALL"},{"type":"WALL"},{"type":"WALL"},{"type":"WALL"},{"type":"WALL"},{"type":"WALL"},{"type":"WALL"},{"type":"WALL"},{"type":"WALL"},{"type":"WALL"},{"type":"WALL"},{"type":"WALL"},{"type":"WALL"},{"type":"WALL"},{"type":"WALL"},{"type":"WALL"},{"id":96218,"randomSeed":0.609253812002323,"gestation":0,"c":1,"r":1,"food":1920,"age":2088,"isFemale":false,"facing":"NORTH","type":"UCKELEOID","brain":{"weights":[[[-0.021489458129250724,0.0070044277003412534,-0.03569187075197618,0.018793972818107567,-0.004895576074092019,0.039216157958783984,0.10476538661154454],[0.9797130092780271,0.04616922236479337,0.01930651629763212,-0.0411656618838962,-0.07016370389455634,-0.03991855695763434,-0.006484791700912223],[0.15559825623760315,-0.027177319285802214,0.02378764740294317,-0.021530885031544655,0.04824634174900465,0.03247042823374456,-0.06314916439081578],[1.0002362773425861,0.04541667290568985,0.2840767978545385,-0.04110239986673531,0.41277785397465755,0.049047307704089445,-0.013481062613260767],[0.949424000903136,-0.05014507986693997,0.08113100888778879,0.6596636720995643,-0.07520141423845281,-0.06314683998684442,-0.02909255483137657],[0.050640221055816045,0.005839977940890012,0.17426906454123123,0.02598333958763571,0.7730516905091356,0.029825941883645794,0.8265446450659036]]],"hiddenLayers":0,"inputCount":5,"outputCount":6},"generation":350.23428428644587},{"type":"EMPTY"},{"id":95811,"randomSeed":0.2173075648617655,"gestation":0,"c":3,"r":1,"food":1085,"age":11380,"isFemale":false,"facing":"NORTH","type":"UCKELEOID","brain":{"weights":[[[0.0023398160248126534,-0.0023624549972323643,-0.03485853625769062,0.02241563423975892,-0.006255841435229835,0.09833468947966532,-0.031928988549109444],[0.9817480481562625,0.0166924182697695,0.022946309289270623,-0.044070583957065805,-0.04306650233893399,-0.04432099832839433,-5.492872211110911E-4],[0.013208755814576797,-0.027285281456191572,0.06242772525339212,-0.03148728089483525,0.11637662046288255,0.040620076986056186,-0.061934284743140826],[1.0003339159428823,0.04643609253544735,0.280795727972823,-0.042671985442288646,0.41350736939454485,0.07401100048433809,-0.01483789760709834],[0.9488391487891825,-0.06378858035201412,0.0852140664121519,0.6596240137923483,-0.06191662418156264,-0.06994108210544916,-0.042277536781719714],[0.050640221055816045,0.010544060067409317,0.1741125976629462,0.02556671933713524,0.7752708754050522,0.028594549278702013,0.8261315238099984]]],"hiddenLayers":0,"inputCount":5,"outputCount":6},"generation":347.9901547140152},{"type":"WALL"},{"type":"EMPTY"},{"type":"WALL"},{"type":"EMPTY"},{"id":95474,"randomSeed":0.3231793227953508,"gestation":0,"c":8,"r":1,"food":1087,"age":18400,"isFemale":false,"facing":"WEST","type":"UCKELEOID","brain":{"weights":[[[0.02382318543680789,0.0016383696355507294,-0.03593972701651195,0.028104591171522777,-0.005620648207291966,0.00891615778596516,-0.028959643062002858],[0.9797130092780271,0.04616922236479337,0.01930651629763212,-0.0411656618838962,-0.07016370389455634,-0.03991855695763434,-0.006484791700912223],[-0.0014835571788065723,-0.026060561056475872,0.0699377818683545,-0.01505004812239676,0.011711282475121584,0.02328359033440656,-0.0750120687480244],[1.0004064105125723,0.056190049214560694,0.2750749664695895,-0.042128774297150125,0.4082389255497589,0.05892610849926265,-0.013596888195540942],[0.9458103118657253,-0.0431839554747374,0.07366917004492612,0.658844781959481,-0.08474180323312891,-0.055339790978418305,-0.024512389752703877],[0.050640221055816045,0.006239483841862214,0.174258533988652,0.02557284199808407,0.7737323089628049,0.02998041938951285,0.8261717881236332]]],"hiddenLayers":0,"inputCount":5,"outputCount":6},"generation":346.6933670324976},{"type":"EMPTY"},{"randomSeed":0.06647336102596968,"c":10,"gestation":0,"type":"UCKELEOID","fetus":{"randomSeed":0.6740528495383922,"c":11,"gestation":900,"type":"UCKELEOID","fetus":{"id":96359,"randomSeed":0.7835094453827386,"gestation":0,"c":0,"r":0,"food":2000,"age":0,"isFemale":true,"facing":"NORTH","type":"UCKELEOID","brain":{"weights":[[[-0.019289632617984016,0.06910338133862555,-0.025313410432323255,0.021711741016935508,-0.006595979955847463,0.014666230531283683,0.017885635163217888],[0.9744385532084427,0.03716106089095534,0.0322730910805003,-0.041468354640073625,-0.08568433980659165,-0.037912118653249983,-0.0065954908911442685],[0.060166520940323445,-0.029834628927297352,0.04528934788516072,-0.030103022556064257,0.04206228679118541,-0.005421505771635192,-0.06808677985447226],[1.0004064105125723,0.050970773124140646,0.280248536080794,-0.03965832256758725,0.4129344010813616,0.05467326379537745,-0.012921774311620117],[0.9448533348001739,-0.10071638203477312,0.09279844536681807,0.6587238082155503,-0.06967625069580191,-0.06311209202843693,-0.022754309970125938],[0.04035080236554364,0.010541364176587704,0.17332447862386358,0.025064913173699518,0.7767943363823828,0.023136458768393358,0.8276444847154899]]],"hiddenLayers":0,"inputCount":5,"outputCount":6},"generation":348.50124992582374},"id":96273,"r":1,"food":1558,"age":972,"isFemale":true,"facing":"NORTH","generation":348.10481131398774,"brain":{"weights":[[[-0.019289632617984016,0.06910338133862555,-0.025313410432323255,0.021711741016935508,-0.006595979955847463,0.014666230531283683,0.017885635163217888],[0.9744385532084427,0.03716106089095534,0.0322730910805003,-0.041468354640073625,-0.08568433980659165,-0.037912118653249983,-0.0065954908911442685],[0.060166520940323445,-0.029834628927297352,0.04528934788516072,-0.030103022556064257,0.04206228679118541,-0.005421505771635192,-0.06808677985447226],[1.0004064105125723,0.050970773124140646,0.280248536080794,-0.03965832256758725,0.4129344010813616,0.05467326379537745,-0.012921774311620117],[0.9490780761111786,-0.03974590153432524,0.08675181715519259,0.6590277890822291,-0.07540893682177448,-0.0627125898012267,-0.023792925942902037],[0.045681843608180936,0.00791302230333614,0.17329007229319665,0.02538092245216663,0.7768550906140157,0.025242433776437194,0.827528548697418]]],"hiddenLayers":0,"inputCount":5,"outputCount":6}},"id":95497,"r":1,"food":486,"age":17971,"isFemale":true,"facing":"WEST","generation":346.67649790108624,"brain":{"weights":[[[-0.019289632617984016,0.06910338133862555,-0.025313410432323255,0.021711741016935508,-0.006595979955847463,0.014666230531283683,0.017885635163217888],[0.9797130092780271,0.04616922236479337,0.01930651629763212,-0.0411656618838962,-0.07016370389455634,-0.03991855695763434,-0.006484791700912223],[0.12350092321197174,-0.055832332608214665,0.05428738335024416,-0.015484651640842968,0.03199988984539502,0.008878811062783695,-0.0936386097724502],[1.0004064105125723,0.050970773124140646,0.280248536080794,-0.03965832256758725,0.4129344010813616,0.05467326379537745,-0.012921774311620117],[0.9490780761111786,-0.03974590153432524,0.08675181715519259,0.6590277890822291,-0.07540893682177448,-0.0627125898012267,-0.023792925942902037],[0.05593462494390185,0.005711584756314846,0.17319327788801248,0.026213277055291827,0.7761661764941795,0.028703749672434657,0.8275079154103928]]],"hiddenLayers":0,"inputCount":5,"outputCount":6}},{"randomSeed":0.6740528495383922,"c":11,"gestation":900,"type":"UCKELEOID","fetus":{"id":96359,"randomSeed":0.7835094453827386,"gestation":0,"c":0,"r":0,"food":2000,"age":0,"isFemale":true,"facing":"NORTH","type":"UCKELEOID","brain":{"weights":[[[-0.019289632617984016,0.06910338133862555,-0.025313410432323255,0.021711741016935508,-0.006595979955847463,0.014666230531283683,0.017885635163217888],[0.9744385532084427,0.03716106089095534,0.0322730910805003,-0.041468354640073625,-0.08568433980659165,-0.037912118653249983,-0.0065954908911442685],[0.060166520940323445,-0.029834628927297352,0.04528934788516072,-0.030103022556064257,0.04206228679118541,-0.005421505771635192,-0.06808677985447226],[1.0004064105125723,0.050970773124140646,0.280248536080794,-0.03965832256758725,0.4129344010813616,0.05467326379537745,-0.012921774311620117],[0.9448533348001739,-0.10071638203477312,0.09279844536681807,0.6587238082155503,-0.06967625069580191,-0.06311209202843693,-0.022754309970125938],[0.04035080236554364,0.010541364176587704,0.17332447862386358,0.025064913173699518,0.7767943363823828,0.023136458768393358,0.8276444847154899]]],"hiddenLayers":0,"inputCount":5,"outputCount":6},"generation":348.50124992582374},"id":96273,"r":1,"food":1558,"age":972,"isFemale":true,"facing":"NORTH","generation":348.10481131398774,"brain":{"weights":[[[-0.019289632617984016,0.06910338133862555,-0.025313410432323255,0.021711741016935508,-0.006595979955847463,0.014666230531283683,0.017885635163217888],[0.9744385532084427,0.03716106089095534,0.0322730910805003,-0.041468354640073625,-0.08568433980659165,-0.037912118653249983,-0.0065954908911442685],[0.060166520940323445,-0.029834628927297352,0.04528934788516072,-0.030103022556064257,0.04206228679118541,-0.005421505771635192,-0.06808677985447226],[1.0004064105125723,0.050970773124140646,0.280248536080794,-0.03965832256758725,0.4129344010813616,0.05467326379537745,-0.012921774311620117],[0.9490780761111786,-0.03974590153432524,0.08675181715519259,0.6590277890822291,-0.07540893682177448,-0.0627125898012267,-0.023792925942902037],[0.045681843608180936,0.00791302230333614,0.17329007229319665,0.02538092245216663,0.7768550906140157,0.025242433776437194,0.827528548697418]]],"hiddenLayers":0,"inputCount":5,"outputCount":6}},{"type":"EMPTY"},{"type":"EMPTY"},{"type":"EMPTY"},{"type":"EMPTY"},{"id":95713,"randomSeed":0.0563288515844198,"gestation":0,"c":16,"r":1,"food":1209,"age":13479,"isFemale":false,"facing":"SOUTH","type":"UCKELEOID","brain":{"weights":[[[-0.06106518489233772,-8.605827644274553E-4,-0.027732414779829313,0.03536915807830389,-0.0031918977192468036,0.01467648717446501,-0.01501373363612276],[0.9905797374387897,0.07527865568758806,0.017262944196937427,-0.040287985385195506,-0.21452108114440424,-0.03037696143352468,0.003577720176139977],[0.13191534771295574,-0.07241779854428199,0.05019955893411535,-0.030238299107925425,0.018580245958994036,0.03902622464665747,-0.08970901607833712],[1.0004064105125723,0.050970773124140646,0.280248536080794,-0.03965832256758725,0.4129344010813616,0.05467326379537745,-0.012921774311620117],[0.9491713485849411,-0.06762640737018227,0.09099267718879263,0.6592055737622711,-0.05691275391868371,-0.045265154699816866,-0.03650064976664999],[0.07055316460371483,0.010896070560210708,0.17566674938240165,0.025399132397156545,0.7588581018591495,0.008766383731888646,0.8270001261515186]]],"hiddenLayers":0,"inputCount":5,"outputCount":6},"generation":347.38405685390114},{"id":95479,"randomSeed":0.6138535477723277,"gestation":0,"c":17,"r":1,"food":1114,"age":18333,"isFemale":false,"facing":"SOUTH","type":"UCKELEOID","brain":{"weights":[[[-0.027898070263464553,0.027549618831067907,-0.02913346077164948,0.03096979638070696,-0.008034954891337829,-1.9737300084253075E-4,-0.0382290930373729],[0.9776321509850621,0.029558361491974647,-0.003693634484907917,-0.04285842466248081,-0.30488784687071346,-0.03144435226841689,0.0020505867708686867],[0.04213137890786917,-0.029369911999899374,0.05124967910942627,-0.02215679456453967,0.013847632206136261,0.03248153987024867,-0.1583396092264111],[1.0044553900322093,0.06514294538559243,0.2880206588683448,-0.0406674336925736,0.41498862011520793,0.03759418990942408,-0.015176699445182636],[0.95769704068049,0.017475779223456257,0.07614000948649587,0.6609431172041028,-0.07321113507373768,-0.06088649866030564,-0.02974271019831191],[0.05219727701469503,0.00707748677893461,0.1749956232550229,0.026389165735006548,0.7743447672713886,0.02334910563582722,0.8448222384251672]]],"hiddenLayers":0,"inputCount":5,"outputCount":6},"generation":345.4979569423224},{"type":"WALL"},{"randomSeed":0.8779931835274805,"c":19,"gestation":119,"type":"UCKELEOID","fetus":{"id":96394,"randomSeed":0.654245143331839,"gestation":0,"c":0,"r":0,"food":2000,"age":0,"isFemale":true,"facing":"NORTH","type":"UCKELEOID","brain":{"weights":[[[-0.03167216285588703,0.014862054033641808,-0.04988848026524684,-0.07320597725601644,-0.004645882372705247,-0.04786216556645718,-0.01948741181487898],[0.9754752583776533,0.05944764019801727,-0.0010716146789266348,-0.04341206151872757,-0.1449443738850808,-0.03296192332029576,-0.0022293790596896582],[-0.005406068649459687,-0.04833896106441167,0.06882802661273406,-0.028865364953369364,0.036012772332714695,0.03213357219116389,-0.07039986296435521],[1.0010890365310903,0.06445586288384393,-0.754089210793367,-0.03888381930068648,0.4141979958775371,0.05210971643484267,-0.012425325857855548],[0.9613632119623143,-0.05219048797124858,0.07535471112479797,0.6610422329124346,-0.022049803677126542,-0.05329549780482648,-0.03996276197683995],[0.04250416516976007,0.006894152289151002,0.1720397599600025,0.025478505494716586,0.7737774950927885,0.006479451670939335,0.8266697864148262]]],"hiddenLayers":0,"inputCount":5,"outputCount":6},"generation":348.2021335042293},"id":95878,"r":1,"food":1468,"age":9926,"isFemale":true,"facing":"SOUTH","generation":347.6640855653834,"brain":{"weights":[[[-0.03167216285588703,0.014862054033641808,-0.04988848026524684,-0.07320597725601644,-0.004645882372705247,-0.04786216556645718,-0.01948741181487898],[0.9730721369456571,0.07263756971343903,0.002903131784205839,-0.04381047503118548,-0.05094079480242622,-0.034632108774487635,-0.005852810345456417],[-0.0014835571788065723,-0.06978835193589071,0.08602509987953436,-0.030366087143522773,0.03107556263857516,0.02872292258699559,-0.06638325487240755],[0.9992008202765457,0.06471934430036143,0.289276742060416,-0.038306136043358356,0.4142731439163375,0.09579240239376331,-0.01254542987764143],[0.9506735055008856,-0.04920015078513369,0.07894732403853257,0.6611149823578327,-0.012656039845302704,-0.04540450692648737,-0.04791029515326283],[0.030442793813322294,0.00911002073366147,0.17158559843667717,0.02635811268857223,0.7648551882947476,0.007066575588645855,0.8269999935540283]]],"hiddenLayers":0,"inputCount":5,"outputCount":6}},{"id":96291,"randomSeed":0.6379494722853891,"gestation":0,"c":20,"r":1,"food":1203,"age":397,"isFemale":true,"facing":"EAST","type":"UCKELEOID","brain":{"weights":[[[-0.03167216285588703,0.014862054033641808,-0.04988848026524684,-0.07320597725601644,-0.004645882372705247,-0.04786216556645718,-0.01948741181487898],[0.9730721369456571,0.07263756971343903,0.002903131784205839,-0.04381047503118548,-0.05094079480242622,-0.034632108774487635,-0.005852810345456417],[-0.005406068649459687,-0.04833896106441167,0.06882802661273406,-0.028865364953369364,0.036012772332714695,0.03213357219116389,-0.07039986296435521],[0.9992008202765457,0.06471934430036143,0.289276742060416,-0.038306136043358356,0.4142731439163375,0.09579240239376331,-0.01254542987764143],[0.950023650479664,-0.02622792232166032,0.07810273986715101,0.661208251722024,0.008155537137683452,-0.04365735946732338,-0.0415295791472437],[0.07055316460371483,-0.004046393900536456,0.17101702326583307,0.029222299543169725,0.7726720822518357,0.016761062663136955,0.8300356708915949]]],"hiddenLayers":0,"inputCount":5,"outputCount":6},"generation":349.2706174069328},{"randomSeed":0.3390707522360905,"c":21,"gestation":0,"type":"UCKELEOID","fetus":{"id":96286,"randomSeed":0.8609332379254785,"gestation":0,"c":23,"r":1,"food":821,"age":511,"isFemale":false,"facing":"SOUTH","type":"UCKELEOID","brain":{"weights":[[[-0.04231400499034564,0.012309290346450192,-0.19153250913548311,-0.14466011484646613,-0.005915090751219655,0.01282125312026692,-0.009215608699571273],[0.9785051592273052,0.08026594598894386,-0.0038738450630682805,-0.04204421123187965,-0.04837502208268479,-0.03105167345856799,-0.017535282173477593],[0.1216048939677517,-0.026689522169930233,0.09407791912384635,-0.005122570302609777,0.01766254242912975,0.03661824010192966,-0.06571012114748981],[1.000313071743132,0.06498637544697994,0.2890907749664256,-0.039165608067180016,0.4155247266207212,0.19261869398498305,-0.01235638561583258],[0.9513238745407707,-0.013283050455563154,0.07796762452040072,0.6571506489575875,-0.027878296479729718,-0.04501221712398242,-0.026981084648950847],[0.05392954488560983,0.0016592597473317821,0.1704003528402381,0.02764533969533791,0.7761382820347514,0.021676584756404046,0.8266324827963984]]],"hiddenLayers":0,"inputCount":5,"outputCount":6},"generation":347.90526718514684},"id":95892,"r":1,"food":1379,"age":9436,"isFemale":true,"facing":"SOUTH","generation":346.1230488665821,"brain":{"weights":[[[-0.04231400499034564,0.012309290346450192,-0.19153250913548311,-0.14466011484646613,-0.005915090751219655,0.01282125312026692,-0.009215608699571273],[0.9785051592273052,0.08026594598894386,-0.0038738450630682805,-0.04204421123187965,-0.04837502208268479,-0.03105167345856799,-0.017535282173477593],[0.01010564048026176,-0.026821409499177367,0.10951837619208422,0.005501775904804614,0.02041694601353702,0.03716556706847312,-0.07393249066595438],[0.9975361191985246,0.06501401989363088,0.2885086199268317,-0.03936471228829918,0.41555251676600735,0.19203452616570924,-0.012346024517305307],[0.9513238745407707,-0.013283050455563154,0.07796762452040072,0.6571506489575875,-0.027878296479729718,-0.04501221712398242,-0.026981084648950847],[0.03725691308233736,0.0030228769292728157,0.1699575405776722,0.026965163747103928,0.7781285244070342,0.02223939464902284,0.826348362093616]]],"hiddenLayers":0,"inputCount":5,"outputCount":6}},{"id":95925,"randomSeed":0.4176388676342344,"gestation":0,"c":22,"r":1,"food":766,"age":8840,"isFemale":false,"facing":"SOUTH","type":"UCKELEOID","brain":{"weights":[[[-0.033816082287756746,0.08518655620631732,-0.27803134406983954,-0.0527187225077298,-0.00747910140700264,0.011567279013742533,-0.010244830888531951],[0.9740475608542407,0.07647299553469213,0.011861272537489892,-0.042265047575769446,-0.04811552468447927,-0.03156536972509877,-0.01630992069027251],[0.1216048939677517,-0.026689522169930233,0.09407791912384635,-0.005122570302609777,0.01766254242912975,0.03661824010192966,-0.06571012114748981],[1.000313071743132,0.06498637544697994,0.2890907749664256,-0.039165608067180016,0.4155247266207212,0.19261869398498305,-0.01235638561583258],[0.9516599887735756,-0.040022510087286675,0.0766854889064593,0.6597686943252538,-0.02751151105838262,-0.04836687557907695,-0.020110032111204018],[0.07055316460371483,-0.004046393900536456,0.17101702326583307,0.029222299543169725,0.7726720822518357,0.016761062663136955,0.8300356708915949]]],"hiddenLayers":0,"inputCount":5,"outputCount":6},"generation":346.51606695293833},{"id":96286,"randomSeed":0.8609332379254785,"gestation":0,"c":23,"r":1,"food":821,"age":511,"isFemale":false,"facing":"SOUTH","type":"UCKELEOID","brain":{"weights":[[[-0.04231400499034564,0.012309290346450192,-0.19153250913548311,-0.14466011484646613,-0.005915090751219655,0.01282125312026692,-0.009215608699571273],[0.9785051592273052,0.08026594598894386,-0.0038738450630682805,-0.04204421123187965,-0.04837502208268479,-0.03105167345856799,-0.017535282173477593],[0.1216048939677517,-0.026689522169930233,0.09407791912384635,-0.005122570302609777,0.01766254242912975,0.03661824010192966,-0.06571012114748981],[1.000313071743132,0.06498637544697994,0.2890907749664256,-0.039165608067180016,0.4155247266207212,0.19261869398498305,-0.01235638561583258],[0.9513238745407707,-0.013283050455563154,0.07796762452040072,0.6571506489575875,-0.027878296479729718,-0.04501221712398242,-0.026981084648950847],[0.05392954488560983,0.0016592597473317821,0.1704003528402381,0.02764533969533791,0.7761382820347514,0.021676584756404046,0.8266324827963984]]],"hiddenLayers":0,"inputCount":5,"outputCount":6},"generation":347.90526718514684},{"type":"WALL"},{"type":"WALL"},{"type":"WALL"},{"type":"EMPTY"},{"randomSeed":0.6469632221872601,"c":3,"gestation":0,"type":"UCKELEOID","fetus":{"id":96242,"randomSeed":0.19891871234878855,"gestation":0,"c":2,"r":4,"food":1149,"age":1560,"isFemale":false,"facing":"SOUTH","type":"UCKELEOID","brain":{"weights":[[[-0.04021953214126889,0.01926594740189491,-0.03415810373851705,0.02749675320450053,1.2153889202771474E-4,0.05034433789949548,-0.03125759815553092],[0.9745624582774962,0.03735914937079308,0.023612531808113367,-0.04350494984449283,-0.04924829027702329,-0.027229881992612063,-0.002748606915229611],[0.0037664110350295564,-0.12269889535596394,0.06764625736499595,-0.034754719053971976,0.09815030402235757,0.03732914127783391,-0.08287963593449883],[0.9974461236339974,-0.0733427059054926,0.1407422604565855,-0.041400378260550236,0.4130616284763084,0.08221806700088584,-0.01567354222554586],[0.9442466766758009,0.04414228007689126,0.07839061057755993,0.661173610501989,-0.05415420515523958,-0.07102053466610486,-0.03060158417548988],[0.02559637919773367,0.006335968024701023,0.1699075571268937,0.029364083686409043,0.7751041068613858,0.022150957949862306,0.8265887178745753]]],"hiddenLayers":0,"inputCount":5,"outputCount":6},"generation":347.08481687095605},"id":95482,"r":2,"food":913,"age":18213,"isFemale":true,"facing":"SOUTH","generation":346.75532261431965,"brain":{"weights":[[[0.0023398160248126534,-0.0023624549972323643,-0.03485853625769062,0.02241563423975892,-0.006255841435229835,0.09833468947966532,-0.031928988549109444],[0.9797130092780271,0.04616922236479337,0.01930651629763212,-0.0411656618838962,-0.07016370389455634,-0.03991855695763434,-0.006484791700912223],[0.0028154998421854793,-0.025774967489527026,0.05327200325894029,-0.0317643962711563,0.19880350035579736,0.04313914895271997,-0.07282966154387806],[1.0004064105125723,0.05084524074820351,0.29049069194630206,-0.04508095760010514,0.4134302186543352,0.0778651530097781,-0.01557012598583452],[0.9484020032026474,-0.08552208688883499,0.08202324220479174,0.6597498075908941,-0.06078061092613212,-0.07802768805759021,-0.039537548853082104],[0.050640221055816045,0.010544060067409317,0.1741125976629462,0.02556671933713524,0.7752708754050522,0.028594549278702013,0.8261315238099984]]],"hiddenLayers":0,"inputCount":5,"outputCount":6}},{"id":96154,"randomSeed":0.2891989130049898,"gestation":0,"c":4,"r":2,"food":1144,"age":3569,"isFemale":false,"facing":"EAST","type":"UCKELEOID","brain":{"weights":[[[0.0023398160248126534,-0.0023624549972323643,-0.03485853625769062,0.02241563423975892,-0.006255841435229835,0.09833468947966532,-0.031928988549109444],[0.9817480481562625,0.0166924182697695,0.022946309289270623,-0.044070583957065805,-0.04306650233893399,-0.04432099832839433,-5.492872211110911E-4],[0.013208755814576797,-0.027285281456191572,0.06242772525339212,-0.03148728089483525,0.11637662046288255,0.040620076986056186,-0.061934284743140826],[1.0003793907642182,0.048789979623468316,0.28519012454139986,-0.04423763579315352,0.4134668667196584,0.0765355177324707,-0.015364810318446566],[0.9486077996249568,-0.07614756125061174,0.08399825966172328,0.6596911778441598,-0.06154026361710393,-0.07450076656794147,-0.04056444752224458],[0.050640221055816045,0.010544060067409317,0.1741125976629462,0.02556671933713524,0.7752708754050522,0.028594549278702013,0.8260854321162079]]],"hiddenLayers":0,"inputCount":5,"outputCount":6},"generation":348.5523344768183},{"id":95457,"randomSeed":0.909493369452897,"gestation":0,"c":5,"r":2,"food":1504,"age":18586,"isFemale":false,"facing":"SOUTH","type":"UCKELEOID","brain":{"weights":[[[-0.04106287171586884,0.07743162091611804,-0.036946518414217575,0.034254569985810196,-0.011544207310816876,-4.959161598986244E-4,-0.06725860767784414],[0.9824973881060194,0.09784277347584204,0.020562766610830455,-0.019297089222482723,-0.049025262342778035,-0.04145783911603742,0.010087936202189991],[0.23746132764610944,-0.0302571816669518,0.08380269020239227,-0.035277961086851745,0.01589131988601154,0.02554932672276889,-0.05587845737804295],[1.0007173420344913,0.05669254182696648,0.25585774203717593,-0.04221909019398583,0.411823232933368,0.052264260456431934,-0.013237708641866353],[0.9509154450263612,-0.05506375140702824,0.06451274832873082,0.6575945345517196,0.08678800053476168,-0.05334680205284491,0.00985891062605454],[0.03441491846794155,0.012601603492104691,0.17391363260330217,0.025705707742713343,0.7793980126376518,0.028082912647047424,0.8265481845045141]]],"hiddenLayers":0,"inputCount":5,"outputCount":6},"generation":346.7112540884137},{"type":"EMPTY"},{"id":95464,"randomSeed":0.2667699742079209,"gestation":0,"c":7,"r":2,"food":1599,"age":18516,"isFemale":false,"facing":"EAST","type":"UCKELEOID","brain":{"weights":[[[0.0458562983334289,0.01440939449036182,-0.03395638154434149,0.032699293393313573,-0.32796863411529514,0.029084086717560177,0.09362868401469207],[0.9830809167502131,0.02271435244898909,0.02168149239550273,-0.04561207850309604,-0.017000850070376713,-0.0406204035275953,-0.01653710191853722],[0.00482384664134543,-0.02600246802455173,0.058713471670738926,-0.02885169682220434,0.05408201221048278,0.03568673809839833,-0.07481641871917695],[1.0004064105125723,0.03481201031503169,0.2849599024995094,-0.03686826553361795,0.40997987226747606,0.06363289206758574,-0.013468213182262897],[0.9490780761111786,-0.03974590153432524,0.08675181715519259,0.6590277890822291,-0.07540893682177448,-0.0627125898012267,-0.023792925942902037],[0.050640221055816045,0.0055164256899059355,0.17427518439979114,0.026160188891136443,0.7724812719559117,0.029726342700159746,0.826124024147179]]],"hiddenLayers":0,"inputCount":5,"outputCount":6},"generation":346.30849250061556},{"id":95438,"randomSeed":0.5973945704507831,"gestation":0,"c":8,"r":2,"food":1250,"age":18989,"isFemale":false,"facing":"SOUTH","type":"UCKELEOID","brain":{"weights":[[[-0.037968474324979726,-0.0041524020404506345,-0.03632327530943281,0.03685436455162516,-0.007275913060211232,-0.005773497262650196,-0.02659155469906966],[0.2938791814534908,0.06504426115426884,0.022371507984656144,-0.04803309920787609,-0.01281868786217568,-0.025626034995456445,6.985533094967583E-4],[0.2185647726556243,-0.03130369383259696,0.062328919634929036,-0.02321662234764405,0.029840106079670463,0.011685799097056112,-0.0673147520042117],[1.0004064105125723,0.03481201031503169,0.29494279197602025,-0.03755811142114679,0.40647374844693124,0.061516068994168185,-0.013663527907196306],[0.9644211999944028,-0.13301926752617396,0.07098823326592374,0.6595441729561129,-0.016209012718408224,-0.03604898102445025,-0.03469532833680259],[0.05593462494390185,0.005711584756314846,0.17319327788801248,0.026213277055291827,0.7761661764941795,0.028703749672434657,0.8275079154103928]]],"hiddenLayers":0,"inputCount":5,"outputCount":6},"generation":345.5294445029776},{"id":95850,"randomSeed":0.22893976999573207,"gestation":0,"c":9,"r":2,"food":854,"age":10487,"isFemale":false,"facing":"EAST","type":"UCKELEOID","brain":{"weights":[[[-0.021489458129250724,0.0070044277003412534,-0.03569187075197618,0.018793972818107567,-0.004895576074092019,0.039216157958783984,0.10476538661154454],[0.9774713482537782,0.04815041082191538,0.021612490378679093,-0.04131983734480452,-0.05090248004188655,-0.02980639657733564,-9.436116739451066E-4],[-0.008849320081690409,-0.0808332364360285,0.06137140196764577,-0.027546581311087972,0.06633637951700747,0.035506493616664914,-0.06810184596364027],[1.0004064105125723,0.050970773124140646,0.280248536080794,-0.03965832256758725,0.4129344010813616,0.05467326379537745,-0.012921774311620117],[0.9487115455805788,-0.10587349609235118,0.08910643916887952,0.6596834245403045,-0.06479211954971055,-0.07325978951462261,-0.02556514071625861],[0.057574213534645396,0.011876872218985124,0.1725861143621096,0.025252165906277546,0.7771994820390121,0.031124075665933334,0.8278084611673785]]],"hiddenLayers":0,"inputCount":5,"outputCount":6},"generation":347.9342908464553},{"id":96308,"randomSeed":0.2978334449291492,"gestation":0,"c":10,"r":2,"food":1824,"age":16,"isFemale":true,"facing":"NORTH","type":"UCKELEOID","brain":{"weights":[[[-0.013027188670917851,0.037960613363888965,-0.02524152910258148,0.023964900512783226,-0.0060015212301165605,0.037377712645448306,0.05963532648642018],[0.9774713482537782,0.04815041082191538,0.021612490378679093,-0.04131983734480452,-0.05090248004188655,-0.02980639657733564,-9.436116739451066E-4],[-0.008849320081690409,-0.0808332364360285,0.06137140196764577,-0.027546581311087972,0.06633637951700747,0.035506493616664914,-0.06810184596364027],[1.0004064105125723,0.050970773124140646,0.2743475966127731,-0.04244564602634435,-0.4136799669807262,0.04681711322189865,-0.013039177093584568],[0.9487115455805788,-0.10587349609235118,0.08910643916887952,0.6596834245403045,-0.06479211954971055,-0.07325978951462261,-0.02556514071625861],[0.04035080236554364,0.010541364176587704,0.17332447862386358,0.025064913173699518,0.7767943363823828,0.023136458768393358,0.8276444847154899]]],"hiddenLayers":0,"inputCount":5,"outputCount":6},"generation":348.34653556405544},{"randomSeed":0.05124998173559958,"c":11,"gestation":0,"type":"UCKELEOID","fetus":{"id":96308,"randomSeed":0.2978334449291492,"gestation":0,"c":10,"r":2,"food":1824,"age":16,"isFemale":true,"facing":"NORTH","type":"UCKELEOID","brain":{"weights":[[[-0.013027188670917851,0.037960613363888965,-0.02524152910258148,0.023964900512783226,-0.0060015212301165605,0.037377712645448306,0.05963532648642018],[0.9774713482537782,0.04815041082191538,0.021612490378679093,-0.04131983734480452,-0.05090248004188655,-0.02980639657733564,-9.436116739451066E-4],[-0.008849320081690409,-0.0808332364360285,0.06137140196764577,-0.027546581311087972,0.06633637951700747,0.035506493616664914,-0.06810184596364027],[1.0004064105125723,0.050970773124140646,0.2743475966127731,-0.04244564602634435,-0.4136799669807262,0.04681711322189865,-0.013039177093584568],[0.9487115455805788,-0.10587349609235118,0.08910643916887952,0.6596834245403045,-0.06479211954971055,-0.07325978951462261,-0.02556514071625861],[0.04035080236554364,0.010541364176587704,0.17332447862386358,0.025064913173699518,0.7767943363823828,0.023136458768393358,0.8276444847154899]]],"hiddenLayers":0,"inputCount":5,"outputCount":6},"generation":348.34653556405544},"id":95494,"r":2,"food":1626,"age":18041,"isFemale":true,"facing":"NORTH","generation":345.7373800498314,"brain":{"weights":[[[-0.013027188670917851,0.037960613363888965,-0.02524152910258148,0.023964900512783226,-0.0060015212301165605,0.037377712645448306,0.05963532648642018],[1.011125270723152,0.03893296342068625,0.03241983633490055,-0.04166200205852528,-0.10057368343701123,-0.03760589795267893,-0.005811617710309367],[0.060166520940323445,-0.029834628927297352,0.04528934788516072,-0.030103022556064257,0.04206228679118541,-0.005421505771635192,-0.06808677985447226],[1.0004064105125723,0.050970773124140646,0.280248536080794,-0.03965832256758725,0.4129344010813616,0.05467326379537745,-0.012921774311620117],[0.9448533348001739,-0.10071638203477312,0.09279844536681807,0.6587238082155503,-0.06967625069580191,-0.06311209202843693,-0.022754309970125938],[0.04035080236554364,0.010541364176587704,0.17332447862386358,0.025064913173699518,0.7767943363823828,0.023136458768393358,0.8276444847154899]]],"hiddenLayers":0,"inputCount":5,"outputCount":6}},{"type":"EMPTY"},{"type":"WALL"},{"randomSeed":0.556740238612396,"c":14,"gestation":860,"type":"UCKELEOID","fetus":{"id":96364,"randomSeed":0.6984791384663283,"gestation":0,"c":0,"r":0,"food":2000,"age":0,"isFemale":false,"facing":"NORTH","type":"UCKELEOID","brain":{"weights":[[[-0.05014433378383035,0.011199410390071038,-0.030918331772403787,0.03212846882256219,-0.001427839076298717,0.034150535281139885,-0.022473426631592734],[0.9776321509850621,0.029558361491974647,-0.003693634484907917,-0.04285842466248081,-0.30488784687071346,-0.03144435226841689,0.0020505867708686867],[0.13191534771295574,-0.07241779854428199,0.05019955893411535,-0.030238299107925425,0.018580245958994036,0.03902622464665747,-0.08970901607833712],[1.0015464588566554,0.055880800746755215,0.2822245608230621,-0.03979816924305768,0.4139320138193465,-0.03679130473451635,-0.012886134840694008],[0.9527604981666478,-0.002512632035633031,0.08267304832903605,0.6601494592009638,-0.06033363238046087,-0.053100285036853156,-0.029695438924002785],[0.07055316460371483,0.010896070560210708,0.17566674938240165,0.025399132397156545,0.7588581018591495,0.008766383731888646,0.8270001261515186]]],"hiddenLayers":0,"inputCount":5,"outputCount":6},"generation":348.54364704914695},"id":96264,"r":2,"food":1561,"age":1131,"isFemale":true,"facing":"WEST","generation":347.68123874858986,"brain":{"weights":[[[-0.04021953214126889,0.01926594740189491,-0.03415810373851705,0.02749675320450053,1.2153889202771474E-4,0.05034433789949548,-0.03125759815553092],[0.9776321509850621,0.029558361491974647,-0.003693634484907917,-0.04285842466248081,-0.30488784687071346,-0.03144435226841689,0.0020505867708686867],[0.0037664110350295564,-0.15497234103034171,0.06573242842381077,-0.028658545264997018,0.019090378688793624,0.03414164535857805,-0.09430312182091692],[1.0024987832419914,0.06119542140514454,0.28380886785551435,-0.03996382126137563,0.41465271843129237,-0.10258502685879631,-0.012816756792280604],[0.9527604981666478,-0.002512632035633031,0.08267304832903605,0.6601494592009638,-0.06033363238046087,-0.053100285036853156,-0.029695438924002785],[0.04665496822917182,0.006695920724570274,0.17218897176763512,0.030727295924171037,0.7589240200874604,0.0075627069880830145,0.8301195849927472]]],"hiddenLayers":0,"inputCount":5,"outputCount":6}},{"randomSeed":0.6689787716341833,"c":15,"gestation":557,"type":"UCKELEOID","fetus":{"id":96376,"randomSeed":0.7810670567427194,"gestation":0,"c":0,"r":0,"food":2000,"age":0,"isFemale":false,"facing":"NORTH","type":"UCKELEOID","brain":{"weights":[[[-0.04021953214126889,0.01926594740189491,-0.03415810373851705,0.02749675320450053,1.2153889202771474E-4,0.05034433789949548,-0.03125759815553092],[0.9633275763208552,0.06116329970983011,0.014695793049019055,-0.04360334003741512,-0.1730087380298326,-0.03504040946029303,-7.486672124577823E-4],[0.0037664110350295564,-0.15497234103034171,0.06573242842381077,-0.028658545264997018,0.019090378688793624,0.03414164535857805,-0.09430312182091692],[1.0012594273632556,0.06284377510971739,0.2866825668345076,-0.039429070619613704,0.4150286502698028,0.005920964370402279,-0.01256354105856662],[0.9623988095166186,-0.06686878027793353,0.06877600426924588,0.65892180551948,0.009822457781237769,-0.043630363466694404,-0.030067158497393845],[0.030442793813322294,0.00911002073366147,0.17158559843667717,0.02635811268857223,0.7648551882947476,0.007066575588645855,0.8269999935540283]]],"hiddenLayers":0,"inputCount":5,"outputCount":6},"generation":348.0265459570471},"id":95690,"r":2,"food":1140,"age":13970,"isFemale":true,"facing":"NORTH","generation":345.60526188161396,"brain":{"weights":[[[-0.04021953214126889,0.01926594740189491,-0.03415810373851705,0.02749675320450053,1.2153889202771474E-4,0.05034433789949548,-0.03125759815553092],[0.9751295951752623,0.042812788809509325,0.009776094260310864,-0.04309923999072338,-0.30390804736547966,-0.033380303302476114,-3.363759166203446E-4],[0.0037664110350295564,-0.15497234103034171,0.06573242842381077,-0.028658545264997018,0.019090378688793624,0.03414164535857805,-0.09430312182091692],[1.0024987832419914,0.06119542140514454,0.28380886785551435,-0.03996382126137563,0.41465271843129237,-0.10258502685879631,-0.012816756792280604],[0.9513238745407707,-0.013283050455563154,0.07796762452040072,0.6571506489575875,-0.027878296479729718,-0.04501221712398242,-0.026981084648950847],[0.04269458709661107,0.006489679179916564,0.1711685635813257,0.030132103360606774,0.7540578270591656,-6.415839495552489E-4,0.8265072122327926]]],"hiddenLayers":0,"inputCount":5,"outputCount":6}},{"randomSeed":0.1744638942522908,"c":16,"gestation":0,"type":"UCKELEOID","fetus":{"randomSeed":0.2829395638421107,"c":17,"gestation":918,"type":"UCKELEOID","fetus":{"id":96357,"randomSeed":0.7992470424269589,"gestation":0,"c":0,"r":0,"food":2000,"age":0,"isFemale":true,"facing":"NORTH","type":"UCKELEOID","brain":{"weights":[[[-0.0347990447295451,0.023952763422823462,-0.03307045664038202,0.028151173071209658,-0.0012165459419379056,0.04310254374276083,-0.03243103279859524],[0.9751295951752623,0.042812788809509325,0.009776094260310864,-0.04309923999072338,-0.30390804736547966,-0.033380303302476114,-3.363759166203446E-4],[0.04213137890786917,-0.029369911999899374,0.05124967910942627,-0.02215679456453967,0.013847632206136261,0.03248153987024867,-0.1583396092264111],[1.0036101162447824,0.06320495613379101,0.28552226942076,-0.04018764657151709,0.41485678245495144,-0.0451407984128308,-0.013743771939047253],[0.95769704068049,0.017475779223456257,0.07614000948649587,0.6609431172041028,-0.07321113507373768,-0.06088649866030564,-0.02974271019831191],[0.04964470207755599,0.006895942972896161,0.17364423957468625,0.0284030625037799,0.7643969559263284,0.006935751155923115,0.8307488412814785]]],"hiddenLayers":0,"inputCount":5,"outputCount":6},"generation":348.4536972719479},"id":96173,"r":2,"food":914,"age":3205,"isFemale":true,"facing":"WEST","generation":347.1874751486069,"brain":{"weights":[[[-0.04021953214126889,0.01926594740189491,-0.03415810373851705,0.02749675320450053,1.2153889202771474E-4,0.05034433789949548,-0.03125759815553092],[0.9751295951752623,0.042812788809509325,0.009776094260310864,-0.04309923999072338,-0.30390804736547966,-0.033380303302476114,-3.363759166203446E-4],[0.04213137890786917,-0.029369911999899374,0.05124967910942627,-0.02215679456453967,0.013847632206136261,0.03248153987024867,-0.1583396092264111],[1.0024987832419914,0.06119542140514454,0.2842593161595267,-0.04011930312866887,0.41481568941858193,-0.057860261858911105,-0.012816756792280604],[0.95769704068049,0.017475779223456257,0.07614000948649587,0.6609431172041028,-0.07321113507373768,-0.06088649866030564,-0.02974271019831191],[0.04569249711556962,0.006685157227807855,0.17226218495761503,0.028880196090566412,0.7609390718732673,0.004703957548890744,0.8282947995153367]]],"hiddenLayers":0,"inputCount":5,"outputCount":6}},"id":96077,"r":2,"food":1475,"age":5258,"isFemale":true,"facing":"EAST","generation":346.55304801572515,"brain":{"weights":[[[-0.027898070263464553,0.027549618831067907,-0.02913346077164948,0.03096979638070696,-0.008034954891337829,-1.9737300084253075E-4,-0.0382290930373729],[0.9776321509850621,0.029558361491974647,-0.003693634484907917,-0.04285842466248081,-0.30488784687071346,-0.03144435226841689,0.0020505867708686867],[0.04213137890786917,-0.029369911999899374,0.05124967910942627,-0.02215679456453967,0.013847632206136261,0.03248153987024867,-0.1583396092264111],[1.0024987832419914,0.06119542140514454,0.28380886785551435,-0.03996382126137563,0.41465271843129237,-0.10258502685879631,-0.012816756792280604],[0.95769704068049,0.017475779223456257,0.07614000948649587,0.6609431172041028,-0.07321113507373768,-0.06088649866030564,-0.02974271019831191],[0.04871668951253184,0.006812499996965531,0.17340357203103127,0.027626408495825063,0.7663937988188217,0.011838519446481975,0.8326595683259159]]],"hiddenLayers":0,"inputCount":5,"outputCount":6}},{"randomSeed":0.2829395638421107,"c":17,"gestation":918,"type":"UCKELEOID","fetus":{"id":96357,"randomSeed":0.7992470424269589,"gestation":0,"c":0,"r":0,"food":2000,"age":0,"isFemale":true,"facing":"NORTH","type":"UCKELEOID","brain":{"weights":[[[-0.0347990447295451,0.023952763422823462,-0.03307045664038202,0.028151173071209658,-0.0012165459419379056,0.04310254374276083,-0.03243103279859524],[0.9751295951752623,0.042812788809509325,0.009776094260310864,-0.04309923999072338,-0.30390804736547966,-0.033380303302476114,-3.363759166203446E-4],[0.04213137890786917,-0.029369911999899374,0.05124967910942627,-0.02215679456453967,0.013847632206136261,0.03248153987024867,-0.1583396092264111],[1.0036101162447824,0.06320495613379101,0.28552226942076,-0.04018764657151709,0.41485678245495144,-0.0451407984128308,-0.013743771939047253],[0.95769704068049,0.017475779223456257,0.07614000948649587,0.6609431172041028,-0.07321113507373768,-0.06088649866030564,-0.02974271019831191],[0.04964470207755599,0.006895942972896161,0.17364423957468625,0.0284030625037799,0.7643969559263284,0.006935751155923115,0.8307488412814785]]],"hiddenLayers":0,"inputCount":5,"outputCount":6},"generation":348.4536972719479},"id":96173,"r":2,"food":914,"age":3205,"isFemale":true,"facing":"WEST","generation":347.1874751486069,"brain":{"weights":[[[-0.04021953214126889,0.01926594740189491,-0.03415810373851705,0.02749675320450053,1.2153889202771474E-4,0.05034433789949548,-0.03125759815553092],[0.9751295951752623,0.042812788809509325,0.009776094260310864,-0.04309923999072338,-0.30390804736547966,-0.033380303302476114,-3.363759166203446E-4],[0.04213137890786917,-0.029369911999899374,0.05124967910942627,-0.02215679456453967,0.013847632206136261,0.03248153987024867,-0.1583396092264111],[1.0024987832419914,0.06119542140514454,0.2842593161595267,-0.04011930312866887,0.41481568941858193,-0.057860261858911105,-0.012816756792280604],[0.95769704068049,0.017475779223456257,0.07614000948649587,0.6609431172041028,-0.07321113507373768,-0.06088649866030564,-0.02974271019831191],[0.04569249711556962,0.006685157227807855,0.17226218495761503,0.028880196090566412,0.7609390718732673,0.004703957548890744,0.8282947995153367]]],"hiddenLayers":0,"inputCount":5,"outputCount":6}},{"randomSeed":0.095314687607993,"c":18,"gestation":918,"type":"UCKELEOID","fetus":{"id":96358,"randomSeed":0.8032501615262904,"gestation":0,"c":0,"r":0,"food":2000,"age":0,"isFemale":false,"facing":"NORTH","type":"UCKELEOID","brain":{"weights":[[[-0.0347990447295451,0.023952763422823462,-0.03307045664038202,0.028151173071209658,-0.0012165459419379056,0.04310254374276083,-0.03243103279859524],[0.9776321509850621,0.029558361491974647,-0.003693634484907917,-0.04285842466248081,-0.30488784687071346,-0.03144435226841689,0.0020505867708686867],[0.04213137890786917,-0.029369911999899374,0.05124967910942627,-0.02215679456453967,0.013847632206136261,0.03248153987024867,-0.1583396092264111],[1.0036101162447824,0.06320495613379101,0.28552226942076,-0.04018764657151709,0.41485678245495144,-0.0451407984128308,-0.013743771939047253],[0.95769704068049,0.017475779223456257,0.07614000948649587,0.6609431172041028,-0.07321113507373768,-0.06088649866030564,-0.02974271019831191],[0.04964470207755599,0.006895942972896161,0.17364423957468625,0.0284030625037799,0.7643969559263284,0.006935751155923115,0.8307488412814785]]],"hiddenLayers":0,"inputCount":5,"outputCount":6},"generation":348.4536972719479},"id":96275,"r":2,"food":343,"age":933,"isFemale":true,"facing":"WEST","generation":347.6637402625119,"brain":{"weights":[[[-0.0347990447295451,0.023952763422823462,-0.03307045664038202,0.028151173071209658,-0.0012165459419379056,0.04310254374276083,-0.03243103279859524],[0.9776321509850621,0.029558361491974647,-0.003693634484907917,-0.04285842466248081,-0.30488784687071346,-0.03144435226841689,0.0020505867708686867],[0.04213137890786917,-0.029369911999899374,0.05124967910942627,-0.02215679456453967,0.013847632206136261,0.03248153987024867,-0.1583396092264111],[1.0036101162447824,0.06320495613379101,0.28552226942076,-0.04018764657151709,0.41485678245495144,-0.0451407984128308,-0.013743771939047253],[0.95769704068049,0.017475779223456257,0.07614000948649587,0.6609431172041028,-0.07321113507373768,-0.06088649866030564,-0.02974271019831191],[0.04964470207755599,0.006895942972896161,0.17364423957468625,0.0284030625037799,0.7643969559263284,0.006935751155923115,0.8307488412814785]]],"hiddenLayers":0,"inputCount":5,"outputCount":6}},{"type":"EMPTY"},{"type":"WALL"},{"randomSeed":0.03026701255419406,"c":21,"gestation":0,"type":"UCKELEOID","fetus":{"randomSeed":0.5921692382094966,"c":22,"gestation":444,"type":"UCKELEOID","fetus":{"id":96380,"randomSeed":0.1802249674320242,"gestation":0,"c":0,"r":0,"food":2000,"age":0,"isFemale":true,"facing":"NORTH","type":"UCKELEOID","brain":{"weights":[[[-0.04231400499034564,0.012309290346450192,-0.19153250913548311,-0.14466011484646613,-0.005915090751219655,0.01282125312026692,-0.009215608699571273],[0.9740475608542407,0.07647299553469213,0.011861272537489892,-0.042265047575769446,-0.04811552468447927,-0.03156536972509877,-0.01630992069027251],[0.1216048939677517,-0.026689522169930233,0.09407791912384635,-0.005122570302609777,0.01766254242912975,0.03661824010192966,-0.06571012114748981],[0.9987462394397096,0.0650045244300243,0.2888081342851515,-0.03926985313456847,0.41553594730845655,0.19244840854942266,-0.01235191316582046],[0.9513238745407707,-0.013283050455563154,0.07796762452040072,0.6571506489575875,-0.027878296479729718,-0.04501221712398242,-0.026981084648950847],[0.04612100606244267,0.0021687759372219554,0.17014492307289011,0.027274261248441366,0.77762339099517,0.02195451754170676,0.8265409404959912]]],"hiddenLayers":0,"inputCount":5,"outputCount":6},"generation":348.90526718514684},"id":96287,"r":2,"food":1606,"age":451,"isFemale":true,"facing":"WEST","generation":347.90526718514684,"brain":{"weights":[[[-0.04231400499034564,0.012309290346450192,-0.19153250913548311,-0.14466011484646613,-0.005915090751219655,0.01282125312026692,-0.009215608699571273],[0.9740475608542407,0.07647299553469213,0.011861272537489892,-0.042265047575769446,-0.04811552468447927,-0.03156536972509877,-0.01630992069027251],[0.1216048939677517,-0.026689522169930233,0.09407791912384635,-0.005122570302609777,0.01766254242912975,0.03661824010192966,-0.06571012114748981],[0.9975361191985246,0.06501401989363088,0.2885086199268317,-0.03936471228829918,0.41555251676600735,0.19203452616570924,-0.012346024517305307],[0.9513238745407707,-0.013283050455563154,0.07796762452040072,0.6571506489575875,-0.027878296479729718,-0.04501221712398242,-0.026981084648950847],[0.03725691308233736,0.0030228769292728157,0.1699575405776722,0.026965163747103928,0.7781285244070342,0.02223939464902284,0.826348362093616]]],"hiddenLayers":0,"inputCount":5,"outputCount":6}},"id":96205,"r":2,"food":682,"age":2518,"isFemale":true,"facing":"NORTH","generation":347.3387428115685,"brain":{"weights":[[[-0.033816082287756746,0.08518655620631732,-0.27803134406983954,-0.0527187225077298,-0.00747910140700264,0.011567279013742533,-0.010244830888531951],[0.9740475608542407,0.07647299553469213,0.011861272537489892,-0.042265047575769446,-0.04811552468447927,-0.03156536972509877,-0.01630992069027251],[0.1216048939677517,-0.026689522169930233,0.09407791912384635,-0.005122570302609777,0.01766254242912975,0.03661824010192966,-0.06571012114748981],[1.000313071743132,0.06498637544697994,0.2890907749664256,-0.039165608067180016,0.4155247266207212,0.19261869398498305,-0.01235638561583258],[0.951542535806374,-0.025073224881991832,0.07657268887839495,0.6609849422083514,-0.03774590539962294,-0.04908449161196675,-0.019650613583975258],[0.05392954488560983,0.0016592597473317821,0.1704003528402381,0.02764533969533791,0.7761382820347514,0.021676584756404046,0.8266324827963984]]],"hiddenLayers":0,"inputCount":5,"outputCount":6}},{"randomSeed":0.5921692382094966,"c":22,"gestation":444,"type":"UCKELEOID","fetus":{"id":96380,"randomSeed":0.1802249674320242,"gestation":0,"c":0,"r":0,"food":2000,"age":0,"isFemale":true,"facing":"NORTH","type":"UCKELEOID","brain":{"weights":[[[-0.04231400499034564,0.012309290346450192,-0.19153250913548311,-0.14466011484646613,-0.005915090751219655,0.01282125312026692,-0.009215608699571273],[0.9740475608542407,0.07647299553469213,0.011861272537489892,-0.042265047575769446,-0.04811552468447927,-0.03156536972509877,-0.01630992069027251],[0.1216048939677517,-0.026689522169930233,0.09407791912384635,-0.005122570302609777,0.01766254242912975,0.03661824010192966,-0.06571012114748981],[0.9987462394397096,0.0650045244300243,0.2888081342851515,-0.03926985313456847,0.41553594730845655,0.19244840854942266,-0.01235191316582046],[0.9513238745407707,-0.013283050455563154,0.07796762452040072,0.6571506489575875,-0.027878296479729718,-0.04501221712398242,-0.026981084648950847],[0.04612100606244267,0.0021687759372219554,0.17014492307289011,0.027274261248441366,0.77762339099517,0.02195451754170676,0.8265409404959912]]],"hiddenLayers":0,"inputCount":5,"outputCount":6},"generation":348.90526718514684},"id":96287,"r":2,"food":1606,"age":451,"isFemale":true,"facing":"WEST","generation":347.90526718514684,"brain":{"weights":[[[-0.04231400499034564,0.012309290346450192,-0.19153250913548311,-0.14466011484646613,-0.005915090751219655,0.01282125312026692,-0.009215608699571273],[0.9740475608542407,0.07647299553469213,0.011861272537489892,-0.042265047575769446,-0.04811552468447927,-0.03156536972509877,-0.01630992069027251],[0.1216048939677517,-0.026689522169930233,0.09407791912384635,-0.005122570302609777,0.01766254242912975,0.03661824010192966,-0.06571012114748981],[0.9975361191985246,0.06501401989363088,0.2885086199268317,-0.03936471228829918,0.41555251676600735,0.19203452616570924,-0.012346024517305307],[0.9513238745407707,-0.013283050455563154,0.07796762452040072,0.6571506489575875,-0.027878296479729718,-0.04501221712398242,-0.026981084648950847],[0.03725691308233736,0.0030228769292728157,0.1699575405776722,0.026965163747103928,0.7781285244070342,0.02223939464902284,0.826348362093616]]],"hiddenLayers":0,"inputCount":5,"outputCount":6}},{"type":"EMPTY"},{"type":"WALL"},{"type":"WALL"},{"id":95810,"randomSeed":0.7302824339454164,"gestation":0,"c":1,"r":3,"food":1299,"age":11391,"isFemale":false,"facing":"EAST","type":"UCKELEOID","brain":{"weights":[[[0.02382318543680789,0.0016383696355507294,-0.03593972701651195,0.028104591171522777,-0.005620648207291966,0.00891615778596516,-0.028959643062002858],[0.9797130092780271,0.04616922236479337,0.01930651629763212,-0.0411656618838962,-0.07016370389455634,-0.03991855695763434,-0.006484791700912223],[-0.0014835571788065723,-0.026060561056475872,0.0699377818683545,-0.01505004812239676,0.011711282475121584,0.02328359033440656,-0.0750120687480244],[1.0004064105125723,0.056190049214560694,0.2750749664695895,-0.042128774297150125,0.4082389255497589,0.05892610849926265,-0.013596888195540942],[0.9458103118657253,-0.0431839554747374,0.07366917004492612,0.658844781959481,-0.08474180323312891,-0.055339790978418305,-0.024512389752703877],[0.050640221055816045,0.010544060067409317,0.1741125976629462,0.02556671933713524,0.7752708754050522,0.028594549278702013,0.8261315238099984]]],"hiddenLayers":0,"inputCount":5,"outputCount":6},"generation":347.3179233489993},{"id":95765,"randomSeed":0.12806230784432637,"gestation":0,"c":2,"r":3,"food":152,"age":12510,"isFemale":false,"facing":"WEST","type":"UCKELEOID","brain":{"weights":[[[-0.06225953478294423,-8.860331101185807E-4,-0.034931715361766556,0.026854670722713844,-0.0069344085393883695,0.03700010398047293,0.05561076565025275],[0.9797130092780271,0.04616922236479337,0.01930651629763212,-0.0411656618838962,-0.07016370389455634,-0.03991855695763434,-0.006484791700912223],[0.20820950316051112,-0.0320522482568407,0.06273828622168597,-0.02374148247980111,0.03789297496436389,0.033004886023232385,-0.060161469758281946],[1.0001236221031795,0.05928551140444135,0.2921553358403324,-0.03848971554342117,0.41316284791509594,0.06429279603412877,-0.014994664607317786],[0.9458103118657253,-0.0431839554747374,0.07366917004492612,0.658844781959481,-0.08474180323312891,-0.055339790978418305,-0.024512389752703877],[0.050640221055816045,0.007293808957327917,0.17430012581551385,0.02587752226157362,0.7733461703011592,0.03012143422915941,0.8261611333375408]]],"hiddenLayers":0,"inputCount":5,"outputCount":6},"generation":348.24291646555196},{"type":"EMPTY"},{"type":"EMPTY"},{"id":96181,"randomSeed":0.38293608411915936,"gestation":0,"c":5,"r":3,"food":1161,"age":3014,"isFemale":false,"facing":"EAST","type":"UCKELEOID","brain":{"weights":[[[0.0458562983334289,0.01440939449036182,-0.03395638154434149,0.032699293393313573,-0.32796863411529514,0.029084086717560177,0.09362868401469207],[0.9816160413317606,0.03652692502535635,0.011848834021359857,-0.043259550039417935,-0.0404917819850307,-0.033062918580877274,-0.021833799742276387],[0.13466492784844297,-0.031237622877500187,0.05697031436035659,-0.020661383799186105,0.04707712563231912,0.03736692332743306,-0.024760175763537617],[1.0004064105125723,0.050970773124140646,0.280248536080794,-0.03965832256758725,0.4129344010813616,0.05467326379537745,-0.012921774311620117],[0.9458103118657253,-0.045477757300344895,0.07366917004492612,0.658609514649724,-0.06807676408228817,-0.06783428506299692,-0.03307682553380222],[0.050640221055816045,0.006239483841862214,0.174258533988652,0.02557284199808407,0.7737323089628049,0.02998041938951285,0.8261717881236332]]],"hiddenLayers":0,"inputCount":5,"outputCount":6},"generation":349.1939538964942},{"type":"FOOD"},{"randomSeed":0.33043497400808064,"c":7,"gestation":0,"type":"UCKELEOID","fetus":{"id":96298,"randomSeed":0.06078037772342193,"gestation":0,"c":8,"r":3,"food":1145,"age":235,"isFemale":false,"facing":"EAST","type":"UCKELEOID","brain":{"weights":[[[-0.007161384242250171,-0.005486232551673026,-0.03449611743041,0.03334610434486665,-0.0065432261858454546,0.01091605876256243,0.11345749763286225],[0.5457710774226651,0.04204386490604977,0.022016558739608158,-0.04688487180005134,-0.014051624503455587,-0.03323014893805376,-0.004137474825495339],[0.1022160540840334,-0.02932737967251473,0.06238369269635193,-0.022303585605605233,0.05614065067796942,0.037571766587014596,-0.06465254588403106],[1.0003095642842648,0.041866217253731096,0.2869350280447279,-0.03961033975571092,0.4102403783342735,0.06267334884356196,-0.013757543829285611],[0.9490780761111786,-0.039375787500313335,0.07611500636430389,0.6590040898472808,-0.05186429630478233,-0.05857714859208501,-0.031129952884663234],[0.05394811976734641,0.006759724589686328,0.17312290381468562,0.02663039911062891,0.7732126223444327,0.02954714536311529,0.8264009485697218]]],"hiddenLayers":0,"inputCount":5,"outputCount":6},"generation":348.4502084915489},"id":96138,"r":3,"food":1327,"age":3810,"isFemale":true,"facing":"WEST","generation":347.6626000563929,"brain":{"weights":[[[-0.007161384242250171,-0.005486232551673026,-0.03449611743041,0.03334610434486665,-0.0065432261858454546,0.01091605876256243,0.11345749763286225],[0.2938791814534908,0.06504426115426884,0.022371507984656144,-0.04803309920787609,-0.01281868786217568,-0.025626034995456445,6.985533094967583E-4],[0.2185647726556243,-0.03130369383259696,0.062328919634929036,-0.02321662234764405,0.029840106079670463,0.011685799097056112,-0.0673147520042117],[1.0004064105125723,0.03481201031503169,0.2908797296827724,-0.037303824681333676,0.4080571995358576,0.06875635416491281,-0.01378416418091891],[0.9581858938255475,-0.08513098500237246,0.07283414464048306,0.6590701426559353,-0.04833707725898638,-0.05237197655212937,-0.03457874729793233],[0.05394811976734641,0.006759724589686328,0.17312290381468562,0.02663039911062891,0.7732126223444327,0.02954714536311529,0.8264009485697218]]],"hiddenLayers":0,"inputCount":5,"outputCount":6}},{"id":96298,"randomSeed":0.06078037772342193,"gestation":0,"c":8,"r":3,"food":1145,"age":235,"isFemale":false,"facing":"EAST","type":"UCKELEOID","brain":{"weights":[[[-0.007161384242250171,-0.005486232551673026,-0.03449611743041,0.03334610434486665,-0.0065432261858454546,0.01091605876256243,0.11345749763286225],[0.5457710774226651,0.04204386490604977,0.022016558739608158,-0.04688487180005134,-0.014051624503455587,-0.03323014893805376,-0.004137474825495339],[0.1022160540840334,-0.02932737967251473,0.06238369269635193,-0.022303585605605233,0.05614065067796942,0.037571766587014596,-0.06465254588403106],[1.0003095642842648,0.041866217253731096,0.2869350280447279,-0.03961033975571092,0.4102403783342735,0.06267334884356196,-0.013757543829285611],[0.9490780761111786,-0.039375787500313335,0.07611500636430389,0.6590040898472808,-0.05186429630478233,-0.05857714859208501,-0.031129952884663234],[0.05394811976734641,0.006759724589686328,0.17312290381468562,0.02663039911062891,0.7732126223444327,0.02954714536311529,0.8264009485697218]]],"hiddenLayers":0,"inputCount":5,"outputCount":6},"generation":348.4502084915489},{"randomSeed":0.4965124640199743,"c":9,"gestation":1549,"type":"UCKELEOID","fetus":{"id":96332,"randomSeed":0.5659651179743669,"gestation":0,"c":0,"r":0,"food":2000,"age":0,"isFemale":true,"facing":"NORTH","type":"UCKELEOID","brain":{"weights":[[[-0.021489458129250724,0.0070044277003412534,-0.03569187075197618,0.018793972818107567,-0.004895576074092019,0.039216157958783984,0.10476538661154454],[0.9776832513290866,0.05143391635727527,0.025325522640289942,-0.040991239572222046,-0.04438122191555676,-0.02891234281569535,2.0595434900883914E-4],[0.1126310294875708,-0.08673113109024358,0.056388985285226935,-0.009076723194646275,0.020427863664632777,0.009766966552036082,-0.047423632613153174],[1.0004064105125723,0.050970773124140646,0.280248536080794,-0.03965832256758725,0.41334154048010285,0.04681711322189865,-0.013039177093584568],[0.9497668211096142,-0.05591839592898041,0.08244454267503626,0.6573572027527214,0.05270026014404264,-0.06287261239460705,-0.02621546881377291],[0.049157890791273626,0.007265412551088029,0.17274425623597975,0.025605312885900438,0.7764645862980121,0.025441854110196557,0.8274204641648444]]],"hiddenLayers":0,"inputCount":5,"outputCount":6},"generation":348.76530301686336},"id":96217,"r":3,"food":1338,"age":2115,"isFemale":true,"facing":"EAST","generation":347.56183251608485,"brain":{"weights":[[[-0.05852703632375995,0.006707287693126045,-0.03529161640371149,0.01907760783269171,-0.0071235148916785045,0.016232541661049767,-0.02229038162035267],[0.9776832513290866,0.05143391635727527,0.025325522640289942,-0.040991239572222046,-0.04438122191555676,-0.02891234281569535,2.0595434900883914E-4],[0.1126310294875708,-0.08673113109024358,0.056388985285226935,-0.009076723194646275,0.020427863664632777,0.009766966552036082,-0.047423632613153174],[1.0004064105125723,0.050970773124140646,0.280248536080794,-0.03965832256758725,0.4129344010813616,0.05467326379537745,-0.012921774311620117],[0.9513238745407707,-0.013283050455563154,0.07796762452040072,0.6571506489575875,-0.027878296479729718,-0.04501221712398242,-0.026981084648950847],[0.049157890791273626,0.007265412551088029,0.17274425623597975,0.025605312885900438,0.7764645862980121,0.025441854110196557,0.8274204641648444]]],"hiddenLayers":0,"inputCount":5,"outputCount":6}},{"randomSeed":0.6178374538577368,"c":10,"gestation":1615,"type":"UCKELEOID","fetus":{"id":96330,"randomSeed":0.23395614602327086,"gestation":0,"c":0,"r":0,"food":2000,"age":0,"isFemale":true,"facing":"NORTH","type":"UCKELEOID","brain":{"weights":[[[-0.03418289266745193,0.01527991639510428,-0.0948426718688909,-0.024294012314396894,-0.005399001585233961,0.01691394972316404,-0.02123278354034511],[0.9642077034415106,0.05707072808365748,0.022926304923936765,-0.03567789161382666,-0.050004911906935255,-0.02952631665791639,2.0467256622287927E-4],[0.057501950719488784,-0.11501923820023123,0.059139987931700284,-0.008650514311451253,0.026455820785615636,-0.02506070889314374,-0.07817754415680474],[1.0007766329008803,-0.05799012296709112,0.2894687372297394,-0.0400823573072084,0.4126040886680579,0.0371371928510477,-0.012749089052666723],[0.9525440710583712,-0.02871906216506711,0.07159120725522225,0.6595632424510197,-0.05503754937757564,-0.060056399092298554,-0.03727802119659318],[0.015564090212293082,0.008390906132864098,0.1727682106643809,0.0247213943291459,0.7745876845530395,0.021301623796861416,0.8270555447179954]]],"hiddenLayers":0,"inputCount":5,"outputCount":6},"generation":347.802097384909},"id":95441,"r":3,"food":1130,"age":18932,"isFemale":true,"facing":"NORTH","generation":346.33952969041377,"brain":{"weights":[[[-0.05852703632375995,0.01378216310115126,-0.12744862098708865,0.02551084308567806,-0.006949190413131745,0.018806842945635203,-0.020767633480964203],[0.9776832513290866,0.05143391635727527,0.025325522640289942,-0.040991239572222046,-0.04438122191555676,-0.02891234281569535,2.0595434900883914E-4],[0.057501950719488784,-0.11501923820023123,0.059139987931700284,-0.008650514311451253,0.026455820785615636,-0.02506070889314374,-0.07817754415680474],[1.0004064105125723,0.050970773124140646,0.280248536080794,-0.03965832256758725,0.4129344010813616,0.05467326379537745,-0.012921774311620117],[0.947323434603601,-0.032179258573800745,0.07938726077498223,0.6585369449774711,-0.07612856779428251,-0.0808840267525423,-0.023571627199197316],[0.050640221055816045,0.005526724528516536,0.1719865730669404,0.026026715668857735,0.773476377664974,-0.0392494356034104,0.826922703692383]]],"hiddenLayers":0,"inputCount":5,"outputCount":6}},{"id":95930,"randomSeed":0.9173237899384848,"gestation":0,"c":11,"r":3,"food":16,"age":8739,"isFemale":false,"facing":"EAST","type":"UCKELEOID","brain":{"weights":[[[-0.024241154943519368,0.015473967949025134,-0.0539585402430269,-0.2230967072221648,-0.002903020598665478,0.00667813785368956,-0.012055361543629385],[0.9687467809388696,0.06731078483634316,0.021684577348462443,-0.037067473593887484,-0.04426283867755862,-0.028891456545074905,0.0031424619200292186],[0.01010564048026176,-0.026821409499177367,0.10097865567868544,-0.03317506587614359,-0.15956376255790458,0.039852370218061164,-0.14218180652368884],[1.0007766329008803,0.8376505580217912,0.28480797471920466,-0.04040984435023104,0.4140242407881532,0.13980040242916464,-0.015031717323190022],[0.9525440710583712,-0.03584322608668171,0.06801372321722966,0.6595691419184838,-0.05809493893642979,-0.05310474146212288,-0.04960639319340504],[0.015564090212293082,0.008390906132864098,0.1727682106643809,0.0247213943291459,0.7745876845530395,0.021301623796861416,0.8270555447179954]]],"hiddenLayers":0,"inputCount":5,"outputCount":6},"generation":347.15408682749194},{"randomSeed":0.8439731824610078,"c":12,"gestation":1651,"type":"UCKELEOID","fetus":{"id":96326,"randomSeed":0.07742792777845231,"gestation":0,"c":0,"r":0,"food":2000,"age":0,"isFemale":false,"facing":"NORTH","type":"UCKELEOID","brain":{"weights":[[[-0.1220535973134795,-0.007844687141259708,-0.044411299787850085,-0.18494750847360808,-0.0033567298215724144,0.007929511432667324,-0.024012225489800993],[0.9659072048711954,0.030120918629825404,0.04745632165046111,-0.04137944923444053,-0.07248893621775729,-0.03852602179364461,-0.007325524844334727],[0.2185647726556243,-0.03130369383259696,0.062328919634929036,-0.02321662234764405,0.029840106079670463,0.011685799097056112,-0.0673147520042117],[1.0021805692706582,0.03686215084224981,0.2877719362493709,-0.039535289354098134,0.4120991159507545,0.0635245790048066,-0.013633768388478358],[0.9448533348001739,-0.10071638203477312,0.09279844536681807,0.6587238082155503,-0.06967625069580191,-0.06311209202843693,-0.022754309970125938],[0.05517198586959863,0.010295441543917453,0.17216111132270437,0.02647846470141999,0.7783969618709305,0.019219815743480938,0.8303504091175359]]],"hiddenLayers":0,"inputCount":5,"outputCount":6},"generation":346.8685505571612},"id":95711,"r":3,"food":1681,"age":13391,"isFemale":true,"facing":"EAST","generation":346.21517750535924,"brain":{"weights":[[[-0.05852703632375995,0.01378216310115126,-0.12744862098708865,0.02551084308567806,-0.006949190413131745,0.018806842945635203,-0.020767633480964203],[0.9659072048711954,0.030120918629825404,0.04745632165046111,-0.04137944923444053,-0.07248893621775729,-0.03852602179364461,-0.007325524844334727],[0.060166520940323445,-0.029834628927297352,0.04528934788516072,-0.030103022556064257,0.04206228679118541,-0.005421505771635192,-0.06808677985447226],[1.0039588269869053,0.023310827700556612,0.28639881695435415,-0.042136685938181914,0.41019692893411025,0.05868958636930601,-0.013532370073688044],[0.9448533348001739,-0.10071638203477312,0.09279844536681807,0.6587238082155503,-0.06967625069580191,-0.06311209202843693,-0.022754309970125938],[0.049157890791273626,0.007265412551088029,0.17274425623597975,0.025605312885900438,0.7764645862980121,0.025441854110196557,0.8274204641648444]]],"hiddenLayers":0,"inputCount":5,"outputCount":6}},{"id":96092,"randomSeed":0.8702221647523081,"gestation":0,"c":13,"r":3,"food":1216,"age":5049,"isFemale":false,"facing":"SOUTH","type":"UCKELEOID","brain":{"weights":[[[-0.0440458497668879,0.059312725010628904,-0.03630173398286915,0.023737745626395745,-0.009173786291285936,0.01287714963725383,-0.025404294901670607],[0.9784552027694129,0.05031811250666823,0.022832267409162346,-0.04732055344872255,-0.05197738382695799,-0.036999738663041994,0.0034310912851931454],[0.004852392097287984,-0.4052978598326874,0.10904875368729888,-0.03756887143874804,0.010922205681208136,0.006535734730004246,-0.0501266626459324],[0.9976714168386529,0.05134513002046536,0.28993145598711395,-0.03955772303107709,0.4103464723660547,0.04109601873766522,-0.01805093943056961],[0.9555975783612509,0.01865157241953693,0.07681754910409534,0.6620247187552473,-0.0013852724324807525,-0.02897355962109558,-0.02730866803119354],[0.06722644763141039,0.014815424884165753,0.1725571469548314,0.020190255067730617,0.7735343876895885,0.015547516211358237,0.8295424403006829]]],"hiddenLayers":0,"inputCount":5,"outputCount":6},"generation":349.760990341869},{"id":96059,"randomSeed":0.20034410312023554,"gestation":0,"c":14,"r":3,"food":1460,"age":5567,"isFemale":false,"facing":"WEST","type":"UCKELEOID","brain":{"weights":[[[-0.052252716979241665,0.026385898109948434,-0.03667213380160922,0.03340507103834065,-0.0025882749016629056,0.00928377912924562,-0.028662275685419132],[0.9774713482537782,0.04815041082191538,0.021612490378679093,-0.04131983734480452,-0.05090248004188655,-0.02980639657733564,-9.436116739451066E-4],[-0.008849320081690409,-0.0808332364360285,0.06137140196764577,-0.027546581311087972,0.06633637951700747,0.035506493616664914,-0.06810184596364027],[0.9994316199263099,0.04302553674302674,0.2903397708784181,-0.044278120791173874,0.4128942851853908,0.026543656018230194,-0.016356496607219304],[0.9506848932541323,0.01960873689131542,0.0763096039046135,0.6590643909579202,-0.02695761908769702,-0.04923015385347891,-0.045997856321420595],[0.05019773473394658,0.012174886993748467,0.17164134160874353,0.02631625011697252,0.7698892924485273,0.010132860985297736,0.827798972791639]]],"hiddenLayers":0,"inputCount":5,"outputCount":6},"generation":348.11735133641696},{"type":"EMPTY"},{"type":"WALL"},{"type":"EMPTY"},{"type":"EMPTY"},{"type":"EMPTY"},{"id":95791,"randomSeed":0.5035302655520195,"gestation":0,"c":20,"r":3,"food":1143,"age":11870,"isFemale":false,"facing":"EAST","type":"UCKELEOID","brain":{"weights":[[[-0.03330050603037011,0.020600753021585337,-0.034929623208176594,0.018589127764796355,0.015967317532072905,0.025572762370531188,-0.026513386177959918],[0.9743447356084124,0.047442445771693834,0.027330450234322252,-0.047797741105768815,-0.04909737704669489,-0.025919954317777036,0.003674177689069394],[-0.003683894673024036,-0.3777614219436516,0.06499535948201662,-0.03633099094433558,-0.11348061661956264,0.02897205224258396,-0.11633548078339567],[1.0010096146210326,0.026112505548572043,0.287380014806673,-0.03948519228529846,0.4127115073909509,0.09630378506036096,-0.01618496571143235],[0.9440457550563153,-0.10614515872984406,0.08148383126987517,0.6625232919541151,-0.06229593189585334,-0.0617275454515332,-0.015709532308667534],[0.06082086554014227,0.01763869822611886,0.1725386273445086,0.029050572725876835,0.7750846375541385,0.019330818668251242,0.8288836210648373]]],"hiddenLayers":0,"inputCount":5,"outputCount":6},"generation":347.84383495740605},{"type":"WALL"},{"type":"EMPTY"},{"id":95447,"randomSeed":0.9995459060860808,"gestation":0,"c":23,"r":3,"food":1944,"age":18757,"isFemale":false,"facing":"WEST","type":"UCKELEOID","brain":{"weights":[[[-0.05619616069013703,0.010693964465364037,-0.05609317468708639,-0.1566968639679927,-0.004032853480318675,0.011563361580630632,-0.014333463917356891],[0.9633275763208552,0.06116329970983011,0.014695793049019055,-0.04360334003741512,-0.1730087380298326,-0.03504040946029303,-7.486672124577823E-4],[0.01010564048026176,-0.026821409499177367,0.10097865567868544,-0.03317506587614359,-0.15956376255790458,0.039852370218061164,-0.14218180652368884],[0.9975361191985246,0.06501401989363088,0.2885086199268317,-0.03936471228829918,0.41555251676600735,0.19203452616570924,-0.012346024517305307],[0.9499247471973677,-0.05984958852307134,0.07186486474644217,0.6607461257101206,-0.024671399763509724,-0.06730780537818751,0.26515756663782886],[0.0539104190096107,0.005282865939891488,0.17010341333268417,0.02498031326394934,0.7776884703578424,0.019864679786426066,0.826192862785965]]],"hiddenLayers":0,"inputCount":5,"outputCount":6},"generation":345.137026593},{"type":"WALL"},{"type":"WALL"},{"id":95591,"randomSeed":0.38448552079265585,"gestation":0,"c":1,"r":4,"food":1738,"age":16133,"isFemale":false,"facing":"WEST","type":"UCKELEOID","brain":{"weights":[[[-0.04532074034325041,0.004582212787707831,-0.05160480394301954,-0.44409616519484385,-0.008142669886150167,0.023362852607912866,-0.030404385178465134],[0.9776321509850621,0.029558361491974647,-0.003693634484907917,-0.04285842466248081,-0.30488784687071346,-0.03144435226841689,0.0020505867708686867],[0.13508083778238386,-0.028945131178770022,0.06647571569348992,0.04258534207174608,0.028742997672284065,0.03580600016126222,-0.04406675501381421],[1.0022284365294931,0.058346041230992005,0.2892503097806275,-0.04127384895057391,0.414668069082551,0.04566300633426264,-0.014512430958765211],[0.9644211999944028,-0.13301926752617396,0.07098823326592374,0.6595441729561129,-0.016209012718408224,-0.03604898102445025,-0.03469532833680259],[0.05219727701469503,0.006102076806350321,0.1736905550675395,0.026251816002746467,0.7800000960868233,0.03349123209815398,-0.8261725257415623]]],"hiddenLayers":0,"inputCount":5,"outputCount":6},"generation":347.7469890367245},{"id":96242,"randomSeed":0.19891871234878855,"gestation":0,"c":2,"r":4,"food":1149,"age":1560,"isFemale":false,"facing":"SOUTH","type":"UCKELEOID","brain":{"weights":[[[-0.04021953214126889,0.01926594740189491,-0.03415810373851705,0.02749675320450053,1.2153889202771474E-4,0.05034433789949548,-0.03125759815553092],[0.9745624582774962,0.03735914937079308,0.023612531808113367,-0.04350494984449283,-0.04924829027702329,-0.027229881992612063,-0.002748606915229611],[0.0037664110350295564,-0.12269889535596394,0.06764625736499595,-0.034754719053971976,0.09815030402235757,0.03732914127783391,-0.08287963593449883],[0.9974461236339974,-0.0733427059054926,0.1407422604565855,-0.041400378260550236,0.4130616284763084,0.08221806700088584,-0.01567354222554586],[0.9442466766758009,0.04414228007689126,0.07839061057755993,0.661173610501989,-0.05415420515523958,-0.07102053466610486,-0.03060158417548988],[0.02559637919773367,0.006335968024701023,0.1699075571268937,0.029364083686409043,0.7751041068613858,0.022150957949862306,0.8265887178745753]]],"hiddenLayers":0,"inputCount":5,"outputCount":6},"generation":347.08481687095605},{"type":"EMPTY"},{"type":"EMPTY"},{"type":"EMPTY"},{"id":96296,"randomSeed":0.24832042183568437,"gestation":0,"c":6,"r":4,"food":1297,"age":247,"isFemale":false,"facing":"NORTH","type":"UCKELEOID","brain":{"weights":[[[0.0458562983334289,-0.0059026104453074575,-0.03395638154434149,0.032699293393313573,-0.7077038695169702,0.017197289036207423,0.08082645090130276],[0.9816160413317606,0.03652692502535635,0.011848834021359857,-0.043259550039417935,-0.0404917819850307,-0.033062918580877274,-0.021833799742276387],[0.13466492784844297,-0.031237622877500187,0.05697031436035659,-0.020661383799186105,0.04707712563231912,0.03736692332743306,-0.031177880959994013],[1.0004064105125723,0.050970773124140646,0.280248536080794,-0.03965832256758725,0.4129344010813616,0.05467326379537745,-0.012921774311620117],[0.9458103118657253,-0.04496437166087819,0.07366917004492612,0.6589687169121574,-0.060167000462167594,-0.06061614290086314,-0.02789187105337972],[0.05070972306332476,0.005474458633321392,0.1741522408281226,0.025694407455541118,0.7720785472532868,0.024837760774591336,0.8261857276477206]]],"hiddenLayers":0,"inputCount":5,"outputCount":6},"generation":349.5798405045811},{"id":96060,"randomSeed":0.6766157614867901,"gestation":0,"c":7,"r":4,"food":1662,"age":5541,"isFemale":true,"facing":"EAST","type":"UCKELEOID","brain":{"weights":[[[0.0458562983334289,-0.0059026104453074575,-0.03479202038697186,0.03126830519716884,-0.00794371691139456,0.011593630473088073,-0.02865837157454638],[0.9830809167502131,0.02271435244898909,0.02168149239550273,-0.04561207850309604,-0.017000850070376713,-0.0406204035275953,-0.01653710191853722],[0.013208755814576797,-0.026894009171435685,0.061934186506742255,-0.03637187965412168,0.013362018972576238,0.034983004008380635,-0.07091281214287021],[1.0004064105125723,0.058860776968773613,0.2843319642903534,0.04234461040569192,0.4117926394427095,0.055062296279259376,-0.0137052681515687],[0.9490780761111786,-0.07126851694037267,0.08020807911800097,0.6609558819902714,-0.053299261111315076,-0.07529902747419513,-0.0387297646610631],[0.054119064658561866,0.003576249218125462,0.17049998594132398,0.026819583209472225,0.769640477155118,0.028058437825038095,-0.5565754966091485]]],"hiddenLayers":0,"inputCount":5,"outputCount":6},"generation":348.7980804951178},{"type":"WALL"},{"type":"EMPTY"},{"randomSeed":0.3736911617818699,"c":10,"gestation":1903,"type":"UCKELEOID","fetus":{"id":96313,"randomSeed":0.673222507685866,"gestation":0,"c":0,"r":0,"food":2000,"age":0,"isFemale":false,"facing":"NORTH","type":"UCKELEOID","brain":{"weights":[[[-0.05852703632375995,0.006707287693126045,-0.03529161640371149,0.01907760783269171,-0.0071235148916785045,0.016232541661049767,-0.02229038162035267],[0.9779542525719046,0.05070722500690627,0.024071754241247474,-0.04375571388128973,-0.04898164113778147,-0.03249599822400308,0.002751995320765105],[0.1126310294875708,-0.08673113109024358,0.056388985285226935,-0.009076723194646275,0.020427863664632777,0.009766966552036082,-0.047423632613153174],[0.9976714168386529,0.05134513002046536,0.28993145598711395,-0.03955772303107709,0.4103464723660547,0.04109601873766522,-0.01805093943056961],[0.9513238745407707,-0.013283050455563154,0.07796762452040072,0.6571506489575875,-0.027878296479729718,-0.04501221712398242,-0.026981084648950847],[0.049157890791273626,0.007265412551088029,0.17274425623597975,0.025605312885900438,0.7764645862980121,0.025441854110196557,0.8274204641648444]]],"hiddenLayers":0,"inputCount":5,"outputCount":6},"generation":350.11561223889714},"id":95717,"r":4,"food":1694,"age":13425,"isFemale":true,"facing":"EAST","generation":346.7435931961822,"brain":{"weights":[[[-0.05852703632375995,0.006707287693126045,-0.03529161640371149,0.01907760783269171,-0.0071235148916785045,0.016232541661049767,-0.02229038162035267],[0.9776832513290866,0.05143391635727527,0.025325522640289942,-0.040991239572222046,-0.04438122191555676,-0.02891234281569535,2.0595434900883914E-4],[0.1126310294875708,-0.08673113109024358,0.056388985285226935,-0.009076723194646275,0.020427863664632777,0.009766966552036082,-0.047423632613153174],[1.0004064105125723,0.050970773124140646,0.280248536080794,-0.03965832256758725,0.4129344010813616,0.05467326379537745,-0.012921774311620117],[0.9513238745407707,-0.013283050455563154,0.07796762452040072,0.6571506489575875,-0.027878296479729718,-0.04501221712398242,-0.026981084648950847],[0.049157890791273626,0.007265412551088029,0.17274425623597975,0.025605312885900438,0.7764645862980121,0.025441854110196557,0.8274204641648444]]],"hiddenLayers":0,"inputCount":5,"outputCount":6}},{"type":"EMPTY"},{"type":"EMPTY"},{"id":95658,"randomSeed":0.45615509821038847,"gestation":0,"c":13,"r":4,"food":1501,"age":14713,"isFemale":false,"facing":"EAST","type":"UCKELEOID","brain":{"weights":[[[-0.03167216285588703,0.014862054033641808,-0.04988848026524684,-0.07320597725601644,-0.004645882372705247,-0.04786216556645718,-0.01948741181487898],[0.9633275763208552,0.06116329970983011,0.014695793049019055,-0.04360334003741512,-0.1730087380298326,-0.03504040946029303,-7.486672124577823E-4],[0.01010564048026176,-0.026821409499177367,0.10097865567868544,-0.03317506587614359,-0.15956376255790458,0.039852370218061164,-0.14218180652368884],[1.000313071743132,0.06498637544697994,0.2890907749664256,-0.039165608067180016,0.4155247266207212,0.19261869398498305,-0.01235638561583258],[0.9695607916060538,-0.1034552390669137,0.05774795189102836,0.6603380823685744,0.03574872488042679,-0.04206311464667278,-0.033588693713068336],[0.030442793813322294,0.00911002073366147,0.17158559843667717,0.02635811268857223,0.7648551882947476,0.007066575588645855,0.8269999935540283]]],"hiddenLayers":0,"inputCount":5,"outputCount":6},"generation":347.59106181312654},{"type":"EMPTY"},{"type":"WALL"},{"type":"EMPTY"},{"randomSeed":0.330544411855343,"c":17,"gestation":651,"type":"UCKELEOID","fetus":{"id":96372,"randomSeed":0.08311045238739678,"gestation":0,"c":0,"r":0,"food":2000,"age":0,"isFemale":true,"facing":"NORTH","type":"UCKELEOID","brain":{"weights":[[[-0.03167216285588703,0.014862054033641808,-0.04988848026524684,-0.07320597725601644,-0.004645882372705247,-0.04786216556645718,-0.01948741181487898],[0.9684160215512548,0.0696841777676781,0.01601094372202041,-0.04539173009790997,-0.0641662248160029,-0.035120320234908915,-0.0070729155412808335],[0.01010564048026176,-0.026821409499177367,0.10097865567868544,-0.03317506587614359,-0.15956376255790458,0.039852370218061164,-0.14218180652368884],[0.9992008202765457,0.06471934430036143,0.289276742060416,-0.038306136043358356,0.4142731439163375,0.09579240239376331,-0.01254542987764143],[0.9513238745407707,-0.013283050455563154,0.07796762452040072,0.6571506489575875,-0.027878296479729718,-0.04501221712398242,-0.026981084648950847],[0.03270053427409566,0.008161167910190167,0.17181457295579944,0.026089799944193692,0.7729251183779506,0.01545642935054032,0.8273804982517889]]],"hiddenLayers":0,"inputCount":5,"outputCount":6},"generation":348.1343746016162},"id":95460,"r":4,"food":1772,"age":18560,"isFemale":true,"facing":"SOUTH","generation":345.1302882870042,"brain":{"weights":[[[-0.03167216285588703,0.014862054033641808,-0.04988848026524684,-0.07320597725601644,-0.004645882372705247,-0.04786216556645718,-0.01948741181487898],[0.9633275763208552,0.06116329970983011,0.014695793049019055,-0.04360334003741512,-0.1730087380298326,-0.03504040946029303,-7.486672124577823E-4],[0.01010564048026176,-0.026821409499177367,0.10097865567868544,-0.03317506587614359,-0.15956376255790458,0.039852370218061164,-0.14218180652368884],[0.9975361191985246,0.06491524130778686,0.2892838176388692,-0.03835235421693641,0.4149905790552902,0.17765361182447242,-0.012516900904291117],[0.9513238745407707,-0.013283050455563154,0.07796762452040072,0.6571506489575875,-0.027878296479729718,-0.04501221712398242,-0.026981084648950847],[0.030442793813322294,0.00911002073366147,0.17158559843667717,0.02635811268857223,0.7648551882947476,0.007066575588645855,0.8269999935540283]]],"hiddenLayers":0,"inputCount":5,"outputCount":6}},{"type":"EMPTY"},{"id":95966,"randomSeed":0.7785162262094153,"gestation":0,"c":19,"r":4,"food":1173,"age":7909,"isFemale":false,"facing":"NORTH","type":"UCKELEOID","brain":{"weights":[[[-0.06786384999351706,0.00800730834205804,-0.03379105520259318,0.0397177366763594,0.7247429330022721,0.007584239312404159,-0.014103329931729743],[0.9791539044212224,0.049970059405847436,0.0030208965266508136,-0.040484635641537495,-0.2651170516188017,-0.035000548029183766,-0.02143734904421343],[0.04213137890786917,-0.029369911999899374,0.05124967910942627,-0.02215679456453967,0.013847632206136261,0.03248153987024867,-0.1583396092264111],[1.0044553900322093,0.06514294538559243,0.2880206588683448,-0.0406674336925736,0.41498862011520793,0.03759418990942408,-0.015176699445182636],[0.9504794887247279,0.02710203787919671,0.07734389533620821,0.6623091290072265,0.02270842610170429,-0.028621021715242556,-0.028481600335655964],[0.05219727701469503,0.00707748677893461,0.1749956232550229,0.026389165735006548,0.7743447672713886,0.02334910563582722,0.8448222384251672]]],"hiddenLayers":0,"inputCount":5,"outputCount":6},"generation":346.09212492934324},{"id":95691,"randomSeed":0.28395354869208045,"gestation":0,"c":20,"r":4,"food":1891,"age":13960,"isFemale":false,"facing":"EAST","type":"UCKELEOID","brain":{"weights":[[[-0.03282524365244316,0.0029623317218271713,-0.0566211386589864,-0.21121906768531507,-0.006405514880830247,0.015495013012763393,-0.024701756406757536],[0.9776321509850621,0.029558361491974647,-0.003693634484907917,-0.04285842466248081,-0.30488784687071346,-0.03144435226841689,0.0020505867708686867],[-0.005406068649459687,-0.04833896106441167,0.06882802661273406,-0.028865364953369364,0.036012772332714695,0.03213357219116389,-0.07039986296435521],[1.0028803742710415,0.06428929536609686,0.2785238806031708,-0.03944810910257978,0.41409289485107437,0.012246187511360099,-0.012306975197903832],[0.9727820791906573,-0.057074293562976115,0.0728867310053767,0.6609041898992161,-0.030410387662894854,-0.06240527737054708,-0.028180813780342276],[0.05219727701469503,0.0038380776441523084,0.1725894973464666,0.02478428165182453,0.7831925627355749,0.006101516397927737,0.8263869693447409]]],"hiddenLayers":0,"inputCount":5,"outputCount":6},"generation":346.3174160142951},{"id":96071,"randomSeed":0.014839817933716248,"gestation":0,"c":21,"r":4,"food":217,"age":5406,"isFemale":false,"facing":"WEST","type":"UCKELEOID","brain":{"weights":[[[-0.051417934214126215,0.03924646634166328,-0.2805502978156861,0.04330257654864404,-0.0057554930862735955,0.011693205543126577,0.1887941884414468],[0.9774713482537782,0.04815041082191538,0.019443351746222165,-0.0416409633665264,-0.11178158295440511,-0.03444278517907666,6.421638399232623E-4],[0.18605662652600408,-0.06631236801678053,0.09447993073297682,-0.036194651773655884,0.02782824081851409,-0.02046493485262938,-0.06649106353176813],[1.0026416164574328,0.05807148421509373,0.29155266840616006,-0.04322036213850308,0.41147721657215713,0.056799210902318605,-0.013594278459038267],[0.9463182332383776,-0.04988839555633166,0.06994781119916627,0.6624407196953579,-0.043766933295306266,-0.05578114635009552,-0.01701320343584399],[0.04359154136337483,0.0010715325023333833,0.17294974943241034,0.02766403205363177,0.771678914431328,0.0030078649785030484,0.8266746223770843]]],"hiddenLayers":0,"inputCount":5,"outputCount":6},"generation":346.4305803632847},{"randomSeed":0.7388930609043398,"c":22,"gestation":457,"type":"UCKELEOID","fetus":{"id":96378,"randomSeed":0.7648511474083091,"gestation":0,"c":0,"r":0,"food":2000,"age":0,"isFemale":true,"facing":"NORTH","type":"UCKELEOID","brain":{"weights":[[[-0.027929525419593048,0.05622413452108058,-0.11563100977027696,0.017719663529008674,-0.004912085878650722,0.01309798154409155,-0.018976635360658405],[0.9514757597489617,0.06242874654974502,0.01638222559983278,-0.043043623231038254,-0.046879577718914725,-0.030413809238966347,-0.009977558548137571],[0.02823224653579714,-0.5402726331597807,0.06499960570881157,-0.037118476153652935,-0.14466830426074218,0.04372569024369795,-0.2798166594355824],[1.0017051047799725,0.04649565026392481,-0.03682943877607281,-0.04051301641613211,0.41376574582003206,0.05844098004416842,-0.013716435074349923],[0.9439173288248687,-0.05157009977083361,0.07961381101427949,0.6629671470528637,0.011136754254258287,-0.056966132009010864,-0.19491565718505727],[0.015564090212293082,0.008390906132864098,0.1727682106643809,0.0247213943291459,0.7745876845530395,0.021301623796861416,0.8270555447179954]]],"hiddenLayers":0,"inputCount":5,"outputCount":6},"generation":348.85572419325933},"id":95632,"r":4,"food":1451,"age":15264,"isFemale":true,"facing":"NORTH","generation":346.3351466762178,"brain":{"weights":[[[-0.027929525419593048,0.05622413452108058,-0.11563100977027696,0.017719663529008674,-0.004912085878650722,0.01309798154409155,-0.018976635360658405],[0.9514757597489617,0.06242874654974502,0.01638222559983278,-0.043043623231038254,-0.046879577718914725,-0.030413809238966347,-0.009977558548137571],[0.009026408768342119,-0.08602988535718097,0.05784593394871717,0.09147996606403372,-0.06263346659735983,0.039972483319021514,-0.06951343381336308],[0.9981557013051686,0.06302650970529017,0.2871330104649557,-0.03955733267150768,0.41430268242272206,0.03222579503006724,-0.01191865505058652],[0.9519973292711974,0.10771034576686622,0.07816561135372226,0.6605548997792131,-0.03720958332633099,-0.07974367096237471,0.6743069698587665],[0.015564090212293082,0.008390906132864098,0.1727682106643809,0.0247213943291459,0.7745876845530395,0.021301623796861416,0.8270555447179954]]],"hiddenLayers":0,"inputCount":5,"outputCount":6}},{"id":96101,"randomSeed":0.25220389099060436,"gestation":0,"c":23,"r":4,"food":1603,"age":4834,"isFemale":false,"facing":"WEST","type":"UCKELEOID","brain":{"weights":[[[-0.018477794672977173,0.023873888081718295,-0.03351091113235286,0.05496106094605477,-0.005133926437598927,0.011719532724079924,-0.0025653028580366515],[0.9684160215512548,0.0696841777676781,0.01601094372202041,-0.04539173009790997,-0.0641662248160029,-0.035120320234908915,-0.0070729155412808335],[0.1216048939677517,-0.026689522169930233,0.09407791912384635,-0.005122570302609777,0.01766254242912975,0.03661824010192966,-0.06571012114748981],[1.000313071743132,0.06498637544697994,0.2890907749664256,-0.039165608067180016,0.4155247266207212,0.19261869398498305,-0.01235638561583258],[0.950023650479664,-0.02622792232166032,0.07810273986715101,0.661208251722024,0.008155537137683452,-0.04365735946732338,-0.0415295791472437],[0.07055316460371483,0.004086179911220576,0.17101702326583307,0.025352733119946402,0.775477691244365,0.013616002599545745,0.8267711343700489]]],"hiddenLayers":0,"inputCount":5,"outputCount":6},"generation":347.8764116350843},{"type":"WALL"},{"type":"WALL"},{"type":"EMPTY"},{"randomSeed":0.24275361776976323,"c":2,"gestation":260,"type":"UCKELEOID","fetus":{"id":96390,"randomSeed":0.17829865934783096,"gestation":0,"c":0,"r":0,"food":2000,"age":0,"isFemale":false,"facing":"NORTH","type":"UCKELEOID","brain":{"weights":[[[-0.02375061591055861,0.016596723747461344,-0.03586519214889728,0.03828271011288336,-0.008227342980636904,0.002794741048072154,-0.026443799889237726],[0.9743113409202667,0.08220196173504045,0.026874438693686793,-0.04474136123422967,-0.056338412312089775,-0.04177948137064691,-0.03216569937315648],[0.03596746127943351,-0.025933595671565692,0.05694433252403733,0.005347121253088592,-0.0014333940652736168,0.04351431162745807,-0.01718040114263799],[1.0026147643875203,0.053356785144681784,0.2654121510649617,-0.045062468411117634,0.40859550194823624,0.056740461424551705,-0.011563987136244796],[0.9458103118657253,-0.0431839554747374,0.07366917004492612,0.658844781959481,-0.08474180323312891,-0.055339790978418305,-0.024512389752703877],[0.05161115102511867,0.011272583416219253,0.17468671140844688,0.0261553590434707,0.7763747080390657,0.026002912053354435,0.8266837229514513]]],"hiddenLayers":0,"inputCount":5,"outputCount":6},"generation":348.601168028762},"id":96180,"r":5,"food":1313,"age":3095,"isFemale":true,"facing":"WEST","generation":348.2299563911871,"brain":{"weights":[[[0.0023398160248126534,0.004959323597146823,-0.036527193341816346,0.03424723882527597,-0.005022793537709385,0.003002838038084065,-0.026093673457170424],[0.9797130092780271,0.04616922236479337,0.01930651629763212,-0.0411656618838962,-0.07016370389455634,-0.03991855695763434,-0.006484791700912223],[-0.0014835571788065723,-0.026060561056475872,0.0699377818683545,-0.01505004812239676,0.011711282475121584,0.02328359033440656,-0.0750120687480244],[1.0004064105125723,0.056190049214560694,0.2750749664695895,-0.042128774297150125,0.4082389255497589,0.05892610849926265,-0.013596888195540942],[0.9458103118657253,-0.0431839554747374,0.07366917004492612,0.658844781959481,-0.08474180323312891,-0.055339790978418305,-0.024512389752703877],[0.050640221055816045,0.010544060067409317,0.1741125976629462,0.02556671933713524,0.7752708754050522,0.028594549278702013,0.8261315238099984]]],"hiddenLayers":0,"inputCount":5,"outputCount":6}},{"id":95906,"randomSeed":0.10207178561304076,"gestation":0,"c":3,"r":5,"food":1072,"age":9227,"isFemale":false,"facing":"SOUTH","type":"UCKELEOID","brain":{"weights":[[[-0.06106518489233772,-8.605827644274553E-4,-0.027732414779829313,0.03536915807830389,-0.0031918977192468036,0.01467648717446501,-0.01501373363612276],[1.011125270723152,0.07522221118414703,0.011527157677823367,-0.03915805525373901,-0.554194914584387,-0.031249141030410037,0.0101790546867595],[0.13191534771295574,-0.04725042818913569,0.07978582977855733,-0.024655006674391244,0.026127731752424797,0.033491814768711756,-0.09211894492404597],[1.0004064105125723,0.050970773124140646,0.280248536080794,-0.03965832256758725,0.4129344010813616,0.05467326379537745,-0.012921774311620117],[0.9491713485849411,-0.06762640737018227,0.09099267718879263,0.6592055737622711,-0.05691275391868371,-0.045265154699816866,-0.03650064976664999],[0.07055316460371483,0.010896070560210708,0.17566674938240165,0.025399132397156545,0.7588581018591495,0.008766383731888646,0.8270001261515186]]],"hiddenLayers":0,"inputCount":5,"outputCount":6},"generation":347.2673414078925},{"type":"WALL"},{"randomSeed":0.5437186708161227,"c":5,"gestation":59,"type":"UCKELEOID","fetus":{"id":96395,"randomSeed":0.16233618056036225,"gestation":0,"c":0,"r":0,"food":2000,"age":0,"isFemale":true,"facing":"NORTH","type":"UCKELEOID","brain":{"weights":[[[0.0458562983334289,0.01440939449036182,-0.03395638154434149,0.032699293393313573,-0.32796863411529514,0.029084086717560177,0.09362868401469207],[0.9816160413317606,0.03652692502535635,0.011848834021359857,-0.043259550039417935,-0.0404917819850307,-0.033062918580877274,-0.021833799742276387],[0.13466492784844297,-0.031237622877500187,0.05697031436035659,-0.020661383799186105,0.04707712563231912,0.03736692332743306,-0.031177880959994013],[1.0004064105125723,0.050970773124140646,0.280248536080794,-0.03965832256758725,0.4129344010813616,0.05467326379537745,-0.012921774311620117],[0.9458103118657253,-0.0431839554747374,0.07366917004492612,0.658844781959481,-0.08474180323312891,-0.055339790978418305,-0.024512389752703877],[0.050745938181888633,0.005006941618593881,0.17409784767700165,0.025757510205040173,0.7708192100781163,0.02252665815594244,0.8261948716991185]]],"hiddenLayers":0,"inputCount":5,"outputCount":6},"generation":349.94109748286974},"id":95527,"r":5,"food":1470,"age":17261,"isFemale":true,"facing":"SOUTH","generation":346.69585122786407,"brain":{"weights":[[[0.0458562983334289,0.01440939449036182,-0.03395638154434149,0.032699293393313573,-0.32796863411529514,0.029084086717560177,0.09362868401469207],[0.9816160413317606,0.03652692502535635,0.011848834021359857,-0.043259550039417935,-0.0404917819850307,-0.033062918580877274,-0.021833799742276387],[0.13466492784844297,-0.031237622877500187,0.05697031436035659,-0.020661383799186105,0.04707712563231912,0.03736692332743306,-0.031177880959994013],[1.0004064105125723,0.050970773124140646,0.280248536080794,-0.03965832256758725,0.4129344010813616,0.05467326379537745,-0.012921774311620117],[0.9458103118657253,-0.0431839554747374,0.07366917004492612,0.658844781959481,-0.08474180323312891,-0.055339790978418305,-0.024512389752703877],[0.05080732237739138,0.004568204522459729,0.17404600128151262,0.025821431063102845,0.7696609446176782,0.020904990749287256,0.8262051877147109]]],"hiddenLayers":0,"inputCount":5,"outputCount":6}},{"type":"EMPTY"},{"randomSeed":0.976308191835918,"c":7,"gestation":1895,"type":"UCKELEOID","fetus":{"id":96314,"randomSeed":0.22878687471527603,"gestation":0,"c":0,"r":0,"food":2000,"age":0,"isFemale":true,"facing":"NORTH","type":"UCKELEOID","brain":{"weights":[[[-0.03650464572822915,-0.0024845751136121333,-0.03126898133282596,-0.07272913649670235,-0.005183570532603297,0.004810809114440735,-0.02694902769803112],[0.9830809167502131,0.02271435244898909,0.02168149239550273,-0.04561207850309604,-0.017000850070376713,-0.0406204035275953,-0.01653710191853722],[0.01942485188977423,-0.02987785773115069,0.05534207160676164,-0.04458563870053761,-0.015623594281327428,0.03604020282315675,-0.07396854960188824],[1.0026416164574328,0.05807148421509373,0.29155266840616006,-0.04322036213850308,0.41147721657215713,0.056799210902318605,-0.013594278459038267],[0.9479220540511254,-0.01669020788831594,0.07376111038080652,0.6610398053865074,-0.05273544601295024,-0.06761185769670157,-0.1017038546825435],[0.046659376034707246,0.005189428138007839,0.172371918538422,0.027668425597574615,0.7692409293134834,0.010349014397528517,0.8273593795621453]]],"hiddenLayers":0,"inputCount":5,"outputCount":6},"generation":347.2092048936201},"id":95467,"r":5,"food":1632,"age":18502,"isFemale":true,"facing":"WEST","generation":346.72118883442096,"brain":{"weights":[[[0.0458562983334289,-0.0059026104453074575,-0.03479202038697186,0.03126830519716884,-0.00794371691139456,0.011593630473088073,-0.02865837157454638],[0.9830809167502131,0.02271435244898909,0.02168149239550273,-0.04561207850309604,-0.017000850070376713,-0.0406204035275953,-0.01653710191853722],[0.013208755814576797,-0.026894009171435685,0.061934186506742255,-0.03637187965412168,0.013362018972576238,0.034983004008380635,-0.07091281214287021],[1.0004064105125723,0.050970773124140646,0.280248536080794,-0.03965832256758725,0.4129344010813616,0.05467326379537745,-0.012921774311620117],[0.9490780761111786,-0.07126851694037267,0.08020807911800097,0.6609558819902714,-0.053299261111315076,-0.07529902747419513,-0.0387297646610631],[0.050640221055816045,0.01156191704463284,0.17158919212293697,0.02767008763382495,0.7679745380891294,0.02111983435862562,0.828050559397379]]],"hiddenLayers":0,"inputCount":5,"outputCount":6}},{"type":"EMPTY"},{"type":"WALL"},{"type":"EMPTY"},{"id":95719,"randomSeed":0.7956530865220058,"gestation":0,"c":11,"r":5,"food":1798,"age":13400,"isFemale":false,"facing":"WEST","type":"UCKELEOID","brain":{"weights":[[[-0.1220535973134795,-0.007844687141259708,-0.044411299787850085,-0.18494750847360808,-0.0033567298215724144,0.007929511432667324,-0.024012225489800993],[0.9821255896827431,0.06170173021362843,0.010737905190485439,-0.04277914150763179,-0.15066255801824935,-0.03919303274521404,0.004709396988093692],[0.2185647726556243,-0.03130369383259696,0.062328919634929036,-0.02321662234764405,0.029840106079670463,0.011685799097056112,-0.0673147520042117],[1.0006274446058867,0.04845314887939961,0.2895127540242781,-0.03676195047949392,0.4136462556628193,0.06634734779684935,-0.013808035135807518],[0.9566051845475313,-0.09841704169307511,0.07312975059483139,0.6589100429237512,-0.008914991192962539,-0.03850060000008435,-0.05622330094289282],[0.05517198586959863,0.010295441543917453,0.17216111132270437,0.02647846470141999,0.7783969618709305,0.019219815743480938,0.8303504091175359]]],"hiddenLayers":0,"inputCount":5,"outputCount":6},"generation":345.3336217312772},{"type":"EMPTY"},{"type":"EMPTY"},{"id":95778,"randomSeed":0.14683915184547258,"gestation":0,"c":14,"r":5,"food":1635,"age":12131,"isFemale":false,"facing":"SOUTH","type":"UCKELEOID","brain":{"weights":[[[-0.030168640104385018,0.011438908087217894,-0.027870709573853063,0.04543972219388239,-0.0037303843166119474,0.03297387421773689,-0.004949198124720328],[0.9633275763208552,0.06116329970983011,0.014695793049019055,-0.04360334003741512,-0.1730087380298326,-0.03504040946029303,-7.486672124577823E-4],[0.1216048939677517,-0.026689522169930233,0.09407791912384635,-0.005122570302609777,0.01766254242912975,0.03661824010192966,-0.06571012114748981],[1.000313071743132,0.06498637544697994,0.2890907749664256,-0.039165608067180016,0.4155247266207212,0.19261869398498305,-0.01235638561583258],[0.9695607916060538,-0.1034552390669137,0.05774795189102836,0.6603380823685744,0.03574872488042679,-0.04206311464667278,-0.033588693713068336],[0.030442793813322294,0.00911002073366147,0.17158559843667717,0.02635811268857223,0.7648551882947476,0.007066575588645855,0.8269999935540283]]],"hiddenLayers":0,"inputCount":5,"outputCount":6},"generation":347.59106181312654},{"type":"EMPTY"},{"id":96034,"randomSeed":0.5347526292472456,"gestation":0,"c":16,"r":5,"food":1127,"age":6226,"isFemale":false,"facing":"SOUTH","type":"UCKELEOID","brain":{"weights":[[[-0.018477794672977173,0.023873888081718295,-0.03351091113235286,0.05496106094605477,-0.005133926437598927,0.011719532724079924,-0.0025653028580366515],[0.9684160215512548,0.0696841777676781,0.01601094372202041,-0.04539173009790997,-0.0641662248160029,-0.035120320234908915,-0.0070729155412808335],[-0.005406068649459687,-0.04833896106441167,0.06882802661273406,-0.028865364953369364,0.036012772332714695,0.03213357219116389,-0.07039986296435521],[0.9975361191985246,0.06491524130778686,0.2892838176388692,-0.03835235421693641,0.4149905790552902,0.17765361182447242,-0.012516900904291117],[0.950023650479664,-0.02622792232166032,0.07810273986715101,0.661208251722024,0.008155537137683452,-0.04365735946732338,-0.0415295791472437],[0.07055316460371483,-0.004046393900536456,0.17101702326583307,0.029222299543169725,0.7726720822518357,0.016761062663136955,0.8300356708915949]]],"hiddenLayers":0,"inputCount":5,"outputCount":6},"generation":347.6264795629712},{"randomSeed":0.8844895359984093,"c":17,"gestation":1366,"type":"UCKELEOID","fetus":{"id":96343,"randomSeed":0.7864002233515243,"gestation":0,"c":0,"r":0,"food":2000,"age":0,"isFemale":true,"facing":"NORTH","type":"UCKELEOID","brain":{"weights":[[[-0.03167216285588703,0.014862054033641808,-0.04988848026524684,-0.07320597725601644,-0.004645882372705247,-0.04786216556645718,-0.01948741181487898],[0.9774713482537782,0.04815041082191538,0.021612490378679093,-0.04131983734480452,-0.05090248004188655,-0.02980639657733564,-9.436116739451066E-4],[-0.008849320081690409,-0.0808332364360285,0.06137140196764577,-0.027546581311087972,0.06633637951700747,0.035506493616664914,-0.06810184596364027],[0.9992008202765457,0.06471934430036143,0.289276742060416,-0.038306136043358356,0.4142731439163375,0.09579240239376331,-0.01254542987764143],[0.9506848932541323,0.01960873689131542,0.0763096039046135,0.6590643909579202,-0.02695761908769702,-0.04923015385347891,-0.045997856321420595],[0.0358180809246078,0.00751751471457109,0.17206826284158028,0.025837455625906763,0.773358335369506,0.016321721689939676,0.827656363298516]]],"hiddenLayers":0,"inputCount":5,"outputCount":6},"generation":348.95362919586023},"id":96132,"r":5,"food":817,"age":3933,"isFemale":true,"facing":"WEST","generation":347.7577517932407,"brain":{"weights":[[[-0.03167216285588703,0.014862054033641808,-0.04988848026524684,-0.07320597725601644,-0.004645882372705247,-0.04786216556645718,-0.01948741181487898],[0.9684160215512548,0.0696841777676781,0.01601094372202041,-0.04539173009790997,-0.0641662248160029,-0.035120320234908915,-0.0070729155412808335],[0.01010564048026176,-0.026821409499177367,0.10097865567868544,-0.03317506587614359,-0.15956376255790458,0.039852370218061164,-0.14218180652368884],[0.9992008202765457,0.06471934430036143,0.289276742060416,-0.038306136043358356,0.4142731439163375,0.09579240239376331,-0.01254542987764143],[0.9513238745407707,-0.013283050455563154,0.07796762452040072,0.6571506489575875,-0.027878296479729718,-0.04501221712398242,-0.026981084648950847],[0.0358180809246078,0.00751751471457109,0.17206826284158028,0.025837455625906763,0.773358335369506,0.016321721689939676,0.827656363298516]]],"hiddenLayers":0,"inputCount":5,"outputCount":6}},{"id":95774,"randomSeed":0.5132913946750931,"gestation":0,"c":18,"r":5,"food":624,"age":12428,"isFemale":false,"facing":"WEST","type":"UCKELEOID","brain":{"weights":[[[-0.031330169198549855,0.004444599884260016,-0.03422829155277078,5.471355005554901E-4,6.897004019107973E-4,0.012725303056053777,